{"b1":{"v":1,"dim":[20,1],"data":[0.00012838603,-0.00006933698,0.009331346,0.0027776563,0.009734338,0.0018855697,-0.011255746,0.004978824,-0.000046371653,0.00040833073,0.0138041405,0.00079198123,-0.0046024555,-0.0097308485,-0.0014102067,-0.0052776644,0.020498509,-0.00019619368,0.004649612,-0.0034208354]},"b2":{"v":1,"dim":[7,1],"data":[0.015807142,-0.010870109,0.0032966617,0.03521253,0.0067032576,-0.024012135,0.021140657]},"b4":{"v":1,"dim":[1,1],"data":[-0.12978353]},"W3":{"v":1,"dim":[5,7],"data":[0.06053972,0.15046968,-0.121221796,0.49719617,0.35934135,-0.57576096,0.14475659,-0.20951131,-0.08324714,-0.14856166,-0.41678616,-0.39569592,0.51669574,0.43396962,0.17583019,-0.012877999,0.19708668,-0.5177327,0.14685057,-0.0052823387,-0.13163403,0.26129532,-0.045894112,-0.5909528,0.24368171,0.098411344,-0.5630082,0.2980659,-0.16596495,0.45050946,0.67072153,-0.48283806,0.113981985,0.5087744,0.15699205]},"W4":{"v":1,"dim":[1,5],"data":[-0.47733617,0.4088872,-0.40790728,-0.7318521,0.9012016]},"W1":{"v":1,"dim":[20,12288],"data":[0.012000746,0.012065712,-0.00076467154,0.014534541,0.005581414,0.010788388,0.008914347,0.006229687,0.0054670554,0.009688708,0.012762061,0.011179789,0.0046381177,0.014356837,0.00927355,0.0036595461,0.00052580214,-0.00009054248,0.014875986,0.0016142962,0.013054039,-0.00029902736,-0.0011932931,-0.0038602403,-0.0057589696,0.009562737,0.0023261956,-0.0030528295,0.00083643926,-0.0054969387,0.011253502,-0.0023624953,0.008430681,-0.00029328492,-0.0064847255,0.011537376,0.0048641567,0.0054110694,0.01095886,0.0036296097,0.012404916,-0.0046866876,0.0032865857,0.0038775143,0.008193382,-0.0032461681,-0.0043530366,0.006277346,0.012114504,0.00094191806,-0.004434474,0.0095901145,-0.0039706337,0.009222821,0.001126699,-0.0048100147,0.0046751546,0.006055993,0.00027123044,0.008925785,0.0047005694,0.0035758785,0.0017599936,0.007814838,-0.0015481841,-0.00996255,-0.0051594856,0.0029953965,-0.0024532585,-0.004812388,-0.010966365,-0.00036871282,-0.010350751,-0.011198352,0.0056344997,0.0004219603,-0.0021042586,0.0073722005,0.0016832671,0.00478686,-0.0030008478,0.002324724,0.009115068,-0.004718615,0.0010985101,0.0056496332,-0.0022367737,0.003226575,0.0054482925,0.0010938257,-0.0014262034,0.00708136,-0.0027357433,-0.005346885,0.004894517,-0.0063928296,-0.0005489099,0.0013631741,0.00077761244,0.0041330606,-0.004557936,-0.0004034641,-0.0056635444,-0.0040998817,-0.0009143704,-0.0022715307,0.0019510891,0.0008245344,-0.0007053437,0.009447546,-0.006729737,-0.0015370417,0.0007590271,-0.0021009145,-0.009421553,0.0041695056,-0.0068260003,-0.0044251718,-0.0036502047,-0.009127727,0.0029977679,0.006085641,-0.008103424,0.004714227,-0.003403093,-0.0069909403,-0.006894232,0.010240494,-0.003217103,-0.00606722,0.010258222,-0.004919421,-0.0021684137,-0.00037829406,0.007855647,-0.0016114016,0.00018563475,0.007627048,-0.0019193096,0.009682818,0.0032835419,-0.004510801,-0.003530315,0.0016329112,0.010227151,-0.005288059,-0.0045002867,0.0023576724,0.0062516336,0.0069669303,0.0108420765,0.010310836,0.0008240995,0.0037762916,0.007993642,0.0067377514,0.00018006834,0.009955127,-0.0056664036,0.006999842,0.00082988455,0.003851095,0.0072147255,0.006018349,-0.001190029,0.0051952326,0.0076801064,-0.0024592208,-0.0026524083,-0.0060910196,0.0008685568,-0.0043230816,0.0019370981,-0.0030834817,0.00665584,0.0050092274,-0.006475968,0.010304082,0.0072032018,0.0019234536,0.011073631,0.003723835,0.008950037,-0.0062623466,-0.0065541365,0.006661197,-0.0030566766,-0.0012121691,-0.0017540177,0.006596074,0.0056061884,0.0016920948,0.012371986,-0.0003219142,0.007968937,0.0038145299,-0.001147822,0.012107608,0.0022479368,0.011685665,0.0040562833,0.005167666,0.009615774,0.003450669,0.015651941,0.0041694352,0.010390549,0.001994591,0.0069131167,0.005446799,0.00036574254,-0.0003143896,0.0030855706,-0.0010883508,-0.0012853661,0.0028722286,-0.006051977,0.0026760586,0.00029485606,0.0044791787,0.0073958295,-0.0026674368,0.00412281,0.0099276705,-0.006882572,-0.004715345,0.008662574,0.001063679,0.007951856,0.0015553954,-0.004101467,-0.0017940392,-0.000013430672,0.009564273,-0.0057799974,0.0020293964,-0.0030307602,0.0048659416,0.0047719614,0.0030937018,0.0016752254,-0.0024531682,0.005395086,0.005459692,0.008680861,0.00054827216,0.009748142,-0.0013327684,-0.0030461336,-0.008064205,-0.008601579,-0.004663888,-0.0002066747,-0.0022680769,0.0013774228,0.0025909888,-0.010138599,0.0046956176,-0.008997696,0.005152733,-0.0042040604,-0.010067906,0.00021532759,-0.0033381009,0.005686702,-0.0027424977,-0.0019053748,0.0023473322,0.007055025,0.006114671,-0.007115246,0.008859015,-0.0027424926,0.001538824,-0.003198534,0.0069670803,-0.0044257804,0.008704296,0.009481781,0.0022226835,-0.008668137,0.009213843,0.006497008,-0.001782837,0.005715723,0.005618852,0.0007714299,-0.0006903003,0.007845336,-0.006060686,0.008500518,0.008684364,0.0012535701,0.010057896,0.00821214,0.0056832656,-0.0038744246,0.0025224457,-0.0075183744,-0.0068249344,0.0023353363,-0.0012132564,-0.0041224174,0.009160456,0.00012235153,0.0070527336,-0.010177944,-0.0058813733,0.0064950734,-0.004251032,-0.0050674365,0.0015972705,0.000039957962,-0.0050744656,-0.008490545,0.00035540006,-0.0026008554,0.0064326883,0.007053184,-0.0053256173,0.0000025711847,0.008307579,0.003695838,-0.00004441059,0.0012450947,-0.0065162056,-0.0070543448,-0.0005853897,0.004372697,-0.0011331248,0.006218854,-0.002714534,0.00050593965,0.0033040533,0.009843854,-0.0046626176,0.0026436837,0.002230199,0.0016720078,-0.000075437216,-0.00018669864,0.009546944,-0.0008221628,-0.0039413846,-0.0049000382,0.008976684,-0.0072230827,0.0063965055,0.0016452897,0.0016237461,-0.0026144136,0.0029692596,0.009257913,0.0019711065,0.0019343179,-0.00080022495,0.010775537,-0.0020280965,0.007746923,-0.006378488,0.008486551,0.00011544756,0.00922562,-0.0003866442,0.0026009683,-0.0029886542,-0.00070784625,-0.0057138377,-0.0008592596,0.009238248,-0.0024843116,0.008902806,0.0012670857,0.00052383705,0.009505119,0.0091843195,-0.005026039,0.009305273,-0.0022676324,0.00073725265,-0.00055479014,-0.00029498764,-0.004672248,0.007845478,0.0035294942,0.0007511116,0.007537944,0.0062773335,0.008791614,-0.00039257595,-0.0037758425,0.011884866,-0.0041708327,0.0027832042,0.0026491452,0.010776851,0.00030167424,0.0009490426,0.008656503,0.014695181,-0.0041026757,0.0016005258,0.00972145,-0.005384062,0.0060100555,-0.0020407338,0.009479939,-0.0067025824,0.009003724,-0.0093251895,0.006451321,-0.0027764014,0.0020405662,-0.009059404,0.0038004357,-0.005096669,0.0026068534,0.004676373,-0.0023151566,-0.00841992,-0.0006831694,0.0063725524,0.001213776,0.004969505,-0.00033419704,0.0045433505,0.0058041005,-0.0052648275,0.008755451,0.0052712,-0.0014563678,-0.0025127446,0.005388757,0.004397121,-0.0033972722,-0.004700843,0.0012614842,-0.0069682845,0.005036351,0.0006077921,-0.0030560433,-0.0071542626,-0.0028928306,-0.0058656107,-0.0030957262,-0.007753533,-0.0069608125,0.0019497384,-0.008055677,-0.0048901467,-0.0080295075,0.00389073,-0.0050232797,0.001415482,-0.0020825632,0.0059385323,-0.0048511396,-0.004329554,-0.0025609941,-0.00051691243,-0.0024906343,-0.007185866,0.0056206547,0.0024636083,0.0034729058,0.00015365145,0.0056045307,-0.0042180126,-0.005416133,0.004793164,0.0042078993,-0.004133927,-0.0047014616,0.00286934,-0.0009045965,0.0063332864,-0.00043780956,-0.0062548756,0.0006490427,0.0069338284,0.0013993147,0.0053288164,-0.0030289998,-0.0054576937,-0.0017610119,-0.0020889472,0.002010653,0.010243602,0.0044162995,0.004314463,0.0043649767,0.001846652,0.003998895,0.006392518,-0.003314434,-0.0063750395,-0.0038142565,-0.002381462,0.008052127,-0.010522255,-0.0026902813,0.0069997013,0.0030994196,-0.0040301257,0.0018759405,0.0038179106,0.0007964317,-0.007571926,0.00469969,0.00618626,-0.003959969,-0.007601079,-0.00007486337,0.00010935079,-0.0032691828,0.006910458,0.0037762134,0.0037241832,-0.005674456,0.004984129,0.0064200484,0.0021894313,0.0021609054,0.0071901223,-0.0043737907,0.0047257273,0.0090025775,0.00039284336,-0.0016364463,0.0054390635,0.005010889,0.006484394,-0.006681433,0.009611422,0.0012685289,0.0006354548,-0.0030058874,-0.0029747344,0.0060353866,0.0075101843,0.009544376,0.0019119204,0.003528762,0.009813216,-0.0025707185,0.010703855,0.011854327,0.008654519,0.0022537494,-0.002108677,-0.0004461963,0.0006564046,-0.0013944793,0.0014668509,-0.0037345642,0.0003450896,0.003987556,0.008921023,0.0078053325,-0.0027100435,-0.0077054407,0.0007094067,0.0026568829,-0.008484086,-0.0021501838,-0.0052444707,0.0048608463,0.003499606,0.005141339,-0.009115481,0.00009171902,-0.005830585,-0.0010347675,-0.0060590156,0.007334161,-0.005711929,0.0015288638,0.0018332278,-0.0012968878,0.013952996,-0.005291803,-0.005053674,-0.00080567837,0.006963585,0.0017748184,0.009836682,0.01062208,-0.003986868,0.0037282233,0.010867767,0.0113033615,0.001135833,0.004990524,0.012708139,-0.0038144612,-0.003542319,-0.0057719615,0.004785439,-0.00019873347,-0.002932376,0.0038232105,0.00914303,0.0056155967,0.01023447,0.004823109,0.0026391554,0.009944348,0.00021052771,-0.000005353963,-0.008048878,-0.0054118964,-0.008815444,0.0055752513,-0.0005563715,-0.0022056391,-0.0076294416,-0.0018841244,0.0034350217,0.008579778,0.0056100795,-0.0058505,-0.0039277994,0.0022877613,0.0042054276,-0.0060226885,-0.0030728767,0.0041872025,-0.0042052465,0.008217763,-0.0057085995,0.0038067864,-0.0052850796,0.008169695,0.004457956,0.009666228,0.005890473,-0.004965847,0.0050921394,0.0048256577,-0.00014627776,-0.0052484185,0.001331739,0.00909597,0.004118268,-0.0067327465,0.0013342866,0.0075184247,-0.00018551043,0.0008107425,0.0006674809,0.0017481577,-0.001283607,-0.0075290184,0.00015127334,0.006324859,0.009132815,0.004868623,0.007062199,-0.008190208,-0.0049690455,-0.0076358356,0.0041025616,0.00807146,-0.005527505,0.0018551983,0.00010081045,0.0054853125,0.0059971265,0.0049731685,-0.0027751392,-0.0048546554,0.0033135198,-0.0034613179,0.009986556,0.012352715,0.008424131,0.00294672,-0.0013131324,0.0024386328,-0.0018599578,0.0072660623,0.008289344,0.0024532476,-0.0016164789,-0.00395057,-0.0067690215,-0.006022756,0.009894852,0.0052438206,-0.006853047,0.0020404928,0.0016428059,0.007048345,-0.004071993,-0.0030141722,-0.005050312,0.0013839006,0.008294843,-0.0022032,-0.009015689,0.0041339975,0.006337499,-0.0021025117,-0.0040931604,0.004015808,-0.0063971695,-0.005778289,0.0023849972,0.0039707664,0.0049237194,-0.0037690985,0.006089956,0.0026883618,0.0058062826,0.010130478,0.009512212,0.006297469,0.0036430524,-0.004506689,-0.0020397413,0.005960649,-0.005559339,0.0060764956,-0.0036838404,-0.0055070813,0.006945603,-0.0034009332,0.0020847733,-0.0048202225,0.005774386,0.0049018017,0.0041957432,0.009239341,-0.0020667207,0.0031743064,0.012293143,-0.0030093086,0.0015326138,0.0038538992,0.0056253155,0.008883544,0.013059806,-0.0025836194,-0.0007997878,-0.0015967886,0.0065898006,0.00034741912,0.006011324,0.0044373735,0.003539565,0.00609584,0.0039214366,-0.005964457,-0.0024180359,-0.008232677,-0.0040069916,-0.0056209075,0.0076795476,0.009016994,-0.0055819442,0.0064329472,0.0042034723,0.0076172473,-0.004919939,0.0034402935,0.003812139,0.0043417434,-0.0004102094,0.009407864,-0.001175547,0.0073505254,0.002590872,-0.002819387,0.0115739275,0.012906952,0.009167863,0.0034775273,-0.0032978714,0.00012620419,0.007207597,0.006378406,-0.0040299906,0.0003203723,0.0005565642,0.00030128544,0.007983542,0.011493914,0.0014328633,0.005431472,0.008122027,0.0021208622,-0.0051568598,0.009593944,0.0034777522,0.010253655,-0.005925221,0.004419807,-0.008120973,0.005817544,-0.004476823,-0.0067938985,-0.006664094,-0.006802458,0.002837071,-0.0033759503,0.0077023627,-0.00041287544,0.006663011,-0.008705648,0.0021690624,-0.0061082584,-0.0075459564,0.0054154997,0.0019515277,-0.0010040144,0.009387481,-0.003455511,0.009115559,-0.004413227,0.0056619425,-0.004493653,0.009542543,0.00821138,-0.0036520336,-0.004366684,-0.0024426305,0.010559118,0.005299878,0.005029996,0.0067991037,0.008666003,0.0007870688,-0.0068541365,-0.0071910764,-0.0053614946,-0.0024302846,0.0032093565,-0.0031041852,0.0026039262,0.0021114636,0.0055489778,-0.0048182206,-0.003707098,0.0048323404,0.0006574991,0.010798097,0.0005695711,0.005504133,-0.0055011646,0.0072218752,0.006631398,-0.0065005864,-0.0021729057,-0.0045983847,0.0033281893,0.0017612042,-0.0063022696,0.002668189,-0.0057305656,0.009313954,0.000758095,0.009138711,0.0070403367,0.0004536277,-0.0004989301,-0.002472956,0.010088025,-0.003525501,0.000036100977,0.010693205,0.010138146,0.0036432736,0.010525496,-0.00033347553,-0.0022016254,-0.0010271677,0.00023022064,0.0026818817,0.0035689098,0.0069801216,-0.003279048,0.009042374,0.006772821,0.0069766603,0.0031975005,-0.007968972,0.00074955943,0.006351502,-0.0041996795,0.005119516,0.0004165553,-0.0001776932,-0.0045099426,0.0016249054,0.0008433539,-0.0027011726,-0.0054377303,0.008479207,0.009430232,-0.0015142201,-0.0068794168,0.0016238256,0.0018914195,0.0068038492,0.0002945362,0.009917674,0.0063349693,-0.00023395648,0.0038670134,-0.0070418874,-0.0009915001,0.008440801,0.006757268,-0.0015847521,0.005300813,-0.008308836,-0.0057306797,0.010251511,-0.0014224432,-0.001758956,0.0048054624,-0.007346732,-0.007584284,0.00047094724,-0.00066018075,-0.0026951986,0.005621066,-0.00075381633,0.0026134667,-0.00015807225,0.007973242,0.0021923357,0.004027403,0.0020391785,0.007997964,0.010175198,-0.0025904495,-0.003745554,0.006951308,0.0016066389,0.007972093,0.003891413,-0.005997906,0.0052742953,0.006994674,0.000102728096,-0.0014802985,0.0022865653,0.009906885,0.00050265813,0.008460678,0.0068177115,-0.0034979025,0.0065690675,-0.002927757,-0.007567141,0.0024418707,-0.0065497556,-0.005010802,0.0070316843,0.014138572,0.01168357,0.0014723344,0.006913388,0.009915082,0.010783609,-0.0033028594,0.0021129232,0.009651574,0.014729022,-0.0016806324,-0.0028858057,0.013607993,0.0023873614,0.0052428334,-0.0007926296,0.012241228,0.0054472764,0.0051754336,0.006735819,0.0037239012,0.0047997627,0.004120658,0.0008672684,0.0031145778,0.0031553647,-0.0004636467,-0.0013568954,0.0029298586,0.0005379242,0.0018097233,0.0063266596,-0.0011356086,-0.0032058975,-0.010477394,-0.0065618576,0.0075780354,-0.008868867,-0.0029763235,0.002710665,0.0007281215,-0.0042424523,-0.008325425,-0.002218777,0.006814347,-0.009270507,-0.009429538,0.0065798084,0.008466004,-0.0071086967,0.009493885,-0.00007611644,-0.0064781825,-0.0069902944,0.0025766387,0.00015843028,-0.0019516721,-0.004162355,-0.0042949375,-0.004728595,-0.008091818,0.00042437177,-0.0052927886,0.004220858,-0.0027425198,0.0063725966,0.004805892,0.0063607176,-0.006449489,0.0042409427,-0.003991949,-0.00050567137,0.0015196691,-0.004209635,0.006470924,-0.006813898,-0.006998091,-0.001955639,0.005316804,-0.0023261611,-0.00012196101,-0.004587122,-0.0033970273,0.0014434193,0.00678588,0.0014737095,0.009256261,-0.0112435315,-0.010981749,-0.00692323,0.0052506067,-0.0047477917,0.00064887153,0.000041967713,-0.0064682565,-0.0031007135,-0.0059623923,0.007030352,-0.00084268436,0.005540061,0.006349329,0.010469922,-0.00049927755,0.0019290383,0.011862742,-0.007570724,0.0011307998,0.006033279,0.0021023147,0.009160419,0.0065608583,-0.0033018254,-0.0013859085,0.008664719,0.0014779717,0.00469607,0.002819387,0.0023407417,0.007447884,-0.008114067,-0.0040174657,-0.009147742,0.003697612,0.0026482083,0.003612802,-0.002501156,0.00005204105,-0.0032517165,-0.0022479636,-0.0022021753,0.0018475224,0.008074122,0.0039273323,0.0063739778,-0.00006184998,0.0005212513,0.003524454,0.010311839,-0.0038253418,-0.0077421726,-0.006908239,0.0065275338,-0.0030910524,-0.00041756243,0.010174907,0.008523879,0.0032036293,-0.0039700516,0.0033682515,0.0104018,-0.0023172812,0.004688187,-0.0027849064,-0.0022217964,0.0030331372,-0.0022400306,-0.0031702416,0.00031213177,0.0068124663,-0.0045865094,0.00085645757,-0.004961335,0.009102864,-0.007241034,-0.00007213168,-0.00080803316,0.008985239,0.004536145,0.0023201248,-0.0054567787,0.009541318,0.006860851,0.008789509,0.008770253,-0.001209672,0.0074128155,0.0070768846,-0.0065083373,0.0020554194,0.008398881,0.004724982,0.006619976,-0.0036515296,0.0005382539,-0.005880274,-0.008807702,-0.0078003993,-0.0037498632,0.00045580545,0.0010472259,0.0035372924,0.00687233,-0.0003596735,0.0010285917,0.002633992,-0.0015757452,0.011497813,0.008030369,0.00084156485,-0.0028376142,0.011568064,0.012252014,0.0036336218,0.0083825765,0.00019126787,0.0014247117,0.010123841,0.005809627,0.0012108982,-0.0014839366,0.010049115,0.007515534,-0.00069641334,0.01152315,0.00032161444,-0.00002123554,0.0022578544,-0.00019261283,-0.0042810296,0.0016499137,-0.0062828297,0.00007510223,0.0015920203,-0.009588475,0.0039269608,-0.003931557,-0.00090156816,0.0026145736,0.0008606667,0.0017246859,0.0030335423,0.0034393284,-0.009539172,0.0015249364,0.0015391342,0.005259964,-0.010448544,-0.0066768155,-0.003909284,0.0040269527,-0.007759941,-0.00437937,-0.0026339306,0.004191236,-0.007412384,-0.0036016393,-0.0058282865,-0.0028021738,0.002770059,-0.0048127524,-0.0062542865,0.0061296523,0.004570275,0.0053191814,0.0034111205,-0.0065528504,-0.009082042,-0.0067329444,-0.0075706528,-0.0028794624,-0.002675605,0.00410321,-0.0039376435,0.0017746228,-0.009178857,0.008206903,0.004010305,-0.0019474598,0.0072491565,0.0012823602,-0.0030279881,-0.005562544,0.0047578295,-0.0028694267,0.0043835607,-0.0009946212,0.0002147506,-0.0075501627,0.006855815,-0.0081477845,0.0031407038,0.0091303345,0.004628804,-0.010301311,-0.005533504,-0.0026883155,-0.0018716636,-0.0024639673,0.009011953,0.009093892,0.0020335533,0.0070088077,0.0108527485,-0.0032912942,0.00548853,-0.0040264404,-0.00074866985,-0.007095569,0.000018205486,0.0026722946,-0.0076175206,-0.0033499238,-0.0017075624,0.0029517272,-0.0075343787,0.0097937165,-0.0060769874,0.0068505066,0.005690655,0.0030196968,-0.005725901,-0.004688852,-0.005252948,-0.0013853908,-0.008307445,-0.0013421951,0.0056359856,0.008037687,0.0035947007,-0.006869731,0.004186847,0.009203154,-0.0021078412,-0.006365974,-0.005437207,-0.001023079,0.0027134921,0.003818749,0.0023748493,0.0063830446,-0.0034828212,-0.007698723,-0.0023805834,-0.006589049,0.0026276186,0.0007548134,-0.0061044577,-0.008549494,0.005488251,0.0009560394,0.0029954698,-0.005435078,-0.00014355971,0.00009226444,0.0052140765,-0.0039910027,-0.0009816394,-0.0020111178,0.005187345,-0.0073489267,0.008171304,0.0099752685,-0.004123892,0.001545649,-0.00043876044,0.00007509186,0.0072322534,-0.0035348006,0.0023145403,0.0068649696,-0.003941803,-0.0060264776,0.006671647,0.0011955125,-0.004498292,0.0033336277,-0.0062565696,0.010304795,-0.0013226322,0.003748698,0.009505056,-0.0058767432,0.007537715,-0.0037957814,0.0082601085,-0.00016075175,-0.003829195,0.009923498,-0.0065894583,0.008213274,0.0022711882,-0.002410503,0.0031525488,0.0028111816,0.011349412,0.006209178,0.0026897113,0.0026309069,-0.0001703568,0.0066402867,0.008765776,0.004737193,0.0039328733,0.0061168,0.012206694,0.0022599243,0.003906526,0.0046483115,0.005955215,0.005397219,0.011972104,0.0076900194,-0.000228913,0.008483392,0.0071338564,-0.00040309783,0.0034148858,-0.0041674348,0.010537391,0.006123909,-0.002420259,-0.00962555,-0.0018290126,0.0048271376,-0.004604043,0.00034976294,-0.0007089865,0.0012741744,-0.000058749174,0.0045983805,-0.0021640966,0.0053292424,0.0047746613,-0.0061931526,0.001333448,0.0004356483,-0.0059251282,-0.005776728,0.0023613274,-0.0102594,0.005176103,0.00043490736,0.0072990106,-0.008189319,0.003911913,0.008343077,0.00046135942,0.006805978,0.0025052074,-0.0014774663,-0.0046785856,0.006179398,-0.0014496421,-0.005593834,0.004039372,-0.007026336,-0.004501303,-0.0073694424,-0.0011490422,0.004156791,-0.00941419,-0.001203141,0.010025132,-0.008683633,-0.005277461,-0.0012318395,0.0072771255,-0.00063974044,-0.0058081183,-0.008321102,0.008047352,-0.0023996006,-0.0013935149,-0.00173406,0.009058223,0.0074793263,-0.00019146572,0.0069169058,-0.0074493396,-0.007452857,0.005149295,-0.008859427,-0.0037691921,0.00901061,-0.0017678497,0.004037942,-0.0023630788,0.0049906233,0.0018818869,0.0026708683,0.00335482,0.0020953612,0.0021019215,-0.00933069,-0.0012481883,0.0064805797,-0.009606171,-0.0060251886,0.0039787698,0.0007906537,0.004087967,-0.0075952075,0.007549046,-0.0053434893,0.0048574912,0.0010746967,-0.0076396395,0.0008191855,-0.0072190184,-0.0009580998,-0.004753622,-0.007792639,-0.0008598554,-0.000113385904,0.0071897316,0.001280267,0.0074197478,-0.0057923784,-0.001975666,0.00032305415,-0.0046070814,-0.0048884857,-0.0061493246,-0.0044658966,0.0062858765,0.0039474764,-0.00062441995,-0.0027467362,0.008282722,-0.0015364573,-0.0015332653,-0.003934372,0.002133893,-0.008433317,0.000022761245,-0.0064889533,-0.0049188263,0.0022314095,-0.0015133682,0.0007806925,-0.004126544,-0.0033433023,0.004019507,0.0066232546,0.007545087,-0.010408857,0.0050904504,-0.004551952,-0.004697038,0.0028960162,0.0030330047,-0.0076195877,-0.00065354764,-0.005979307,0.005175149,-0.00052526355,0.0052785957,0.0070977667,0.007059213,-0.0036356284,0.005321853,-0.0036826879,0.0067432458,0.00041417396,-0.0061553763,-0.0048360624,0.003995923,-0.0034301125,0.00047537638,0.00769508,0.0077165235,-0.003570747,-0.004466814,-0.0030584568,-0.0027765192,-0.0036347923,0.01140878,0.010740836,-0.0062035318,-0.0039007256,-0.006808692,0.0015320161,-0.0017999106,-0.0066086217,-0.0055983663,0.0068398556,-0.0019664632,0.010979142,0.012496818,0.0015199959,0.0041941507,0.011196352,0.0011801783,-0.00090432627,0.00012713789,0.0020679357,-0.0032572597,0.0057283323,-0.003998255,-0.0012459707,-0.005188491,-0.0024206033,-0.0044878437,-0.0076163537,0.003604907,-0.0066252635,0.0033264724,0.0054907305,-0.0022617246,0.004201267,-0.0066772485,-0.006110289,0.0023452693,-0.009261057,-0.004002721,0.0011858135,-0.0009454484,-0.0038924636,-0.0006267141,-0.00054758805,0.0013881096,-0.009167565,-0.0033965993,-0.010250245,0.002087967,-0.003848036,-0.0065583363,0.0056183343,-0.00792285,0.005370201,0.004586133,-0.0038026457,-0.0026305343,0.006180098,-0.005550501,0.0015118927,-0.00014406929,0.0014797995,0.008418681,-0.004204697,0.0020503171,0.0030472015,0.011102445,0.008176267,-0.003333505,0.0057412656,-0.009009509,0.007338587,-0.006660725,0.0028417783,0.004875461,0.0040393597,0.0025351073,-0.005619157,-0.0069275443,0.0018443374,-0.003971487,0.000636657,0.0036825363,0.0040380154,-0.0015247383,0.0045436798,0.0072018686,0.0043141656,0.007441,-0.0063053924,-0.0021140045,-0.005003962,0.009344895,0.00033819847,0.004611901,0.0013009885,0.0016139284,-0.0010465176,-0.0022114203,0.0050113006,-0.007009695,-0.0025865103,-0.004973472,-0.007577956,-0.00926776,0.0053622765,0.000045401004,-0.005791962,0.003262074,0.00486317,-0.004204941,-0.005813833,-0.010152588,0.0041326685,-0.0043910295,0.00019444463,-0.0038478218,-0.0056090965,0.0039879763,-0.005634512,-0.0037693463,-0.001764747,-0.0011049047,-0.004742964,0.0069820457,-0.006400025,-0.0005885735,0.0010901212,0.001753038,0.0020353168,0.006819574,0.007159477,0.007856972,0.004970877,0.003916279,-0.0057220566,0.002732439,-0.003120516,-0.0027789029,-0.007686251,0.0073151435,0.0049026217,-0.0013095632,-0.00021659123,-0.00066326873,-0.0078026555,0.00010968536,-0.0021092189,-0.0011764859,0.00096107274,-0.0006465862,-0.0054873214,0.004731752,-0.003924129,0.0054909643,0.0036856486,-0.0009594101,-0.004120055,0.0033461424,-0.007052351,0.00092606415,-0.009181109,0.007218457,-0.005156537,0.004089767,0.0028337846,-0.000015376665,-0.005530521,-0.0046311943,-0.005140791,0.007482133,-0.0034925495,-0.005093926,0.0009067125,-0.0012080632,-0.0005144162,0.010176906,-0.00036423653,-0.00034030693,0.009784015,0.0071989642,0.010744669,0.0028940262,-0.0068432936,0.0009711934,-0.005594861,-0.007013874,0.0041496605,0.008354264,0.008266175,-0.005296824,0.008110521,-0.0065494543,0.0120821465,0.0011099881,0.0035142882,0.010648945,0.0068178987,-0.0034357912,0.0019450455,-0.0068039186,0.009802886,0.0029274998,0.005964717,0.0032458003,0.0012671148,-0.0031513167,0.0070882333,0.0014763892,-0.0009096637,0.007959751,0.00040217533,0.0043429537,0.008816427,0.00015437783,0.004810221,0.00051435456,-0.004440301,0.004607087,-0.00026163898,0.00836146,-0.005918685,-0.010690127,0.0027536948,0.0038278194,0.0055796504,0.00054535497,0.0035667175,-0.007869691,-0.009368526,0.0011543802,-0.005729424,-0.00053361204,0.0025391919,-0.013976838,-0.012339785,0.0014771187,-0.009572426,-0.001050524,-0.0007450257,-0.009256051,0.0028455441,-0.008803575,-0.008092405,-0.005482221,0.004844357,-0.0029804779,-0.0073879077,-0.010085301,-0.0008383011,-0.0028013608,0.0059113065,0.0010818124,-0.0042571826,0.0050890637,0.010368227,0.002668428,-0.0057719555,0.009252771,-0.0050370176,-0.0029438064,0.0016635511,-0.0008711534,0.0007944319,-0.0044314787,0.005850263,-0.004783331,0.008510287,0.0060585816,-0.009794052,0.006266843,-0.009252409,-0.0042577568,0.0019243588,-0.0027674846,-0.009750279,0.010155118,-0.004201533,-0.0033165372,0.0076460326,0.0015871284,0.0026397381,0.0064112092,-0.0037588067,0.0077841897,0.009320955,0.0066613234,0.00003260546,-0.0015845946,-0.013605109,0.00076337677,0.0076554213,-0.0075186985,-0.011535635,-0.009765551,0.0032123234,0.0047482303,0.0056191003,0.00028270058,0.003328083,0.0013751813,-0.0057811933,-0.008051116,0.0003346533,-0.0065774038,0.0071771913,0.0044004377,0.0020968155,-0.0078459075,0.0074819787,-0.0009273227,-0.006134073,0.008138581,0.0061248695,-0.004941822,0.009372894,-0.005587103,0.00826209,0.0076383706,0.004632247,0.0031644232,-0.0059390287,-0.0030709696,0.004312918,0.008593212,0.0002834902,-0.00043773788,-0.0015298119,-0.007725917,0.0077364226,-0.0036423916,0.00007389314,0.009733573,-0.0018567618,-0.010053137,0.0043073115,0.008449121,-0.0046361303,-0.0034508468,0.0049716705,0.008373625,0.0035817658,0.0058582723,0.0060519204,0.0030222456,0.012245705,-0.002468724,0.0022626566,0.006171935,0.008547168,0.008820755,0.009956507,-0.005530614,-0.000814385,0.0013896378,0.0070239143,-0.005185159,0.009454914,-0.0054123825,0.0024647962,0.008342818,-0.006709024,-0.0066522374,0.009350323,-0.001119316,-0.0077225277,-0.0038653314,0.00021561349,-0.007008349,0.0031932371,-0.0072135073,-0.0028643657,-0.006307413,-0.0064027687,-0.000063885185,0.0027888583,0.007986485,-0.009352759,-0.0017199268,0.009304463,-0.006866687,0.003541916,-0.004686344,-0.004529239,-0.0047636493,-0.0025409837,0.0015865401,0.0027191264,0.008294416,0.0069918027,-0.006128917,-0.0045784363,-0.008389769,-0.0051688594,0.010713678,0.001066066,0.00013365166,-0.004522613,0.001036822,0.003103143,0.0019259476,0.0058537447,-0.0041483934,-0.00543285,0.008388793,0.003962461,0.0025224688,0.0015342713,-0.00895493,-0.0039879996,-0.00484444,0.006637538,0.00074921595,0.00063681917,-0.0024270106,0.007198894,-0.0031207195,-0.00802698,0.005914181,0.0041535487,-0.0036456166,0.0022310873,-0.00036114748,-0.0033693607,0.0050732945,-0.0034980278,0.0032606616,-0.010782493,-0.0014805229,0.0034477257,-0.01013063,-0.012569824,-0.0017003461,0.0005102043,0.005223792,-0.000013392642,0.0010565633,-0.011216302,-0.002162848,-0.0062097153,-0.0074407905,0.0024113029,-0.003420198,0.006889597,0.004943297,-0.0030435496,-0.0053095394,-0.010007003,0.0050869603,0.0055123954,-0.0065757167,-0.009859951,-0.008417126,0.0077640186,-0.009073274,-0.011317971,0.002798312,0.003768021,-0.0021111371,-0.003533921,0.005550778,-0.007185181,0.006895262,-0.0008648193,-0.011346185,-0.0012892294,0.002059252,-0.00909991,0.008461009,-0.0069660177,-0.004478405,0.004839844,0.0010143536,0.0034931693,0.008786677,-0.00625833,-0.00026600342,-0.008664452,-0.012946588,-0.00020389205,-0.005559052,-0.00885147,-0.008503604,0.00036901055,-0.0039861896,-0.009330611,-0.0010291308,0.00031371944,-0.009171985,0.0010897279,-0.010589672,-0.002867033,0.0008727238,-0.0040579443,0.0019908713,-0.0029015571,0.0053795353,0.004685553,-0.00067292876,0.004156411,-0.0062656915,-0.0090478165,-0.0023392108,-0.008651735,-0.000103711405,0.00080230396,-0.007423102,-0.006270062,0.007176553,0.0025221785,-0.0077623753,0.00079886283,0.0063926126,-0.0035090302,-0.0051143966,0.0033683022,0.00087664626,0.0093177445,0.0017816434,0.007903003,0.0035484622,-0.004855544,-0.0048878337,-0.0077071395,-0.0010562089,0.008143974,-0.004899022,0.0074481717,0.0070599583,0.0074116564,0.004042515,0.009108384,0.00085415196,-0.005362714,-0.0059537026,0.0096053,0.0060720453,0.0015330293,0.00044700506,-0.00267535,-0.0037493294,0.0053851116,-0.0041749855,-0.000030231105,-0.000078812685,0.008481537,0.0069544413,0.0074489666,-0.0062377164,0.0016364099,0.0072685317,-0.0062008463,0.0071018483,-0.0045328797,0.009970143,0.009521001,0.005106385,-0.002007316,-0.0055418666,0.008104204,0.010466436,-0.004479941,-0.007010116,-0.007072441,-0.0015537824,-0.00922406,-0.008045486,-0.0024746738,-0.0011777962,-0.005269328,0.00006833196,-0.00093964447,-0.0020562126,0.008331181,-0.0018426739,0.008762579,-0.0026742914,-0.0052376282,-0.0016366771,-0.0029873205,-0.0017181258,0.009423934,0.008351964,0.0094584795,0.006477753,0.007726105,0.0075625777,0.00078066025,0.0036357346,-0.00230209,0.00902731,0.01072621,0.013497485,0.00058623,0.010313349,0.0017852187,0.0060986304,0.00035884013,-0.0012924331,0.0011261351,0.0018513218,-0.0016908096,0.008238635,0.0017349264,0.0014964829,0.006468431,-0.0036279813,0.0104464125,-0.0055207675,0.0034716108,-0.00049580436,-0.0017259065,-0.002562618,-0.0028893168,-0.0076649063,-0.0076921983,-0.010426126,-0.00041445557,-0.0044684843,-0.002316596,-0.0015463259,0.0026250137,0.0065547777,-0.0068054846,0.00026370538,-0.010242538,-0.0009319992,0.00034063167,-0.001453728,-0.010212583,0.0037736385,0.0023449203,0.0029381188,-0.0065775914,0.0018908043,-0.0074742613,-0.009014352,-0.0051688924,0.0036996123,-0.0048333313,-0.010872222,-0.008585175,-0.008230114,-0.0060081505,0.0025819037,0.0032508678,-0.009500541,-0.008572763,-0.0011062763,0.0017895529,-0.010006603,-0.00065334496,-0.01114334,0.0021309885,0.0035355259,0.004034006,0.0012095206,0.006241101,-0.013267515,-0.006654921,0.002989776,-0.002872041,-0.003604979,0.0020152994,0.0015430002,-0.0060974974,0.004744472,0.0010666255,-0.009058803,-0.0056740516,0.00054229744,0.0034335435,-0.0061975806,-0.0133976275,-0.012590721,-0.0020454929,-0.008438393,-0.004226656,0.0008206439,-0.010550411,-0.0017154162,-0.007385902,-0.012882151,-0.00844437,-0.0023328706,-0.010133123,0.00012563054,0.0017183028,0.0005596927,0.0013810111,-0.009964113,-0.00091584196,0.005404293,-0.0055297012,-0.0003212321,-0.006294612,-0.002238186,0.0042514373,-0.0007124945,0.0036910998,0.0035431285,-0.005048277,-0.00033586437,0.0004131508,-0.006596927,0.0056829085,0.0023157788,0.007413522,0.0061088395,0.007935593,-0.0073322454,-0.0046841255,0.0028481327,0.0065077995,0.010973396,0.0072848117,0.006375511,0.011821352,-0.0043203,0.0021995967,0.010077757,-0.0023629933,0.010193221,0.0073352973,0.0064288042,0.0047378386,0.009998626,0.006372825,-0.0010835003,0.005533854,0.00781657,-0.0018352434,0.00061615906,0.005174401,0.0033352906,0.004892397,0.008824514,0.008980437,0.012128775,0.008530779,-0.00021501258,0.0016979735,0.0040030587,0.0044104527,-0.0023340133,0.006259048,0.00030543757,0.006854532,0.008594645,-0.0015154966,0.012166258,0.007698996,0.006305734,0.008837214,0.011070811,0.0038421561,0.0025595755,0.004779265,-0.004721184,0.007909864,0.004173855,0.0013257829,-0.010068277,0.00041261918,-0.005671386,0.00084587024,-0.005509623,0.003230323,0.0010727354,0.0059998585,0.007591516,0.006261388,-0.0024011366,-0.0027068513,-0.0044248416,-0.00009566809,0.005368325,0.0018076617,-0.0015167136,0.010959176,0.0045599574,0.0050501,0.012804245,0.010498884,0.008914716,0.0119130565,0.012318808,-0.0022700503,0.008106592,0.010612185,0.001973107,0.0020287286,0.0026838086,-0.001238598,0.0018329404,-0.0004821698,0.011602547,-0.004449897,-0.008465556,0.0061173276,0.0057825968,-0.0059288624,0.0045282226,0.0017964472,-0.0036275447,-0.0047958484,0.007044723,-0.0108314995,-0.009058907,0.00039507324,0.0017278644,0.004565448,-0.010979682,-0.0027786263,-0.0036647054,-0.004432972,0.006070563,0.0049520927,0.0059809643,-0.010971776,-0.0014366158,-0.0037332384,-0.003126769,0.0074532744,0.006277773,-0.0061165127,0.004490016,0.0028267093,0.004549355,-0.007068892,0.0044567743,-0.0026126376,-0.00021426941,-0.0120671205,-0.004664528,-0.0057459353,0.0011375878,-0.0049930783,-0.012010762,0.0018834389,-0.0056231064,-0.011813864,-0.002670113,0.0016321351,-0.0006127231,-0.007227406,-0.008114401,-0.0062074712,-0.006360612,-0.0018447122,0.0030907108,-0.011404398,-0.00455541,-0.0019841886,-0.0028923934,-0.011982746,0.002970473,-0.0011507458,0.0007069767,-0.0070435726,-0.0069822357,-0.004599007,-0.0032001382,-0.0049690153,-0.010129706,-0.00471814,-0.014073547,-0.0010669872,-0.014891988,-0.0054893945,-0.0048923953,0.00022834235,-0.0019686387,-0.0047013015,-0.0069495086,-0.014494942,-0.012457935,-0.0034778968,-0.011314128,0.0007631289,-0.004287858,0.00083327515,-0.010747649,0.0028230927,0.00031346644,-0.0055659055,0.00010166779,-0.008982716,0.00072227046,-0.00028938492,-0.0030840226,0.000059629307,0.004079072,0.0071092,-0.0020815202,0.007860948,-0.004359855,0.008352321,0.0045550093,-0.0018900118,0.0071408525,-0.0012761955,-0.00056623475,0.00525244,0.006267882,-0.00018897407,0.008415371,-0.0018729749,0.0011442943,0.0045973617,0.0008529844,0.0073362063,0.010496563,0.010119036,0.0038357899,-0.00017361388,0.0035515635,0.01024543,0.011635865,0.013548048,0.005695342,0.009092463,-0.0032510494,0.0067479475,0.011503086,0.0025016323,-0.00008096764,0.008439085,0.0011607014,-0.00017045019,0.0044322303,0.0042970777,-0.0060739117,0.00747308,-0.0031799644,0.006321357,0.012003256,0.013134346,0.010267965,0.0030631742,0.0068440256,0.009681549,0.011191218,0.009227086,0.009236922,0.0017816497,0.0018140969,0.0040531987,0.0028166068,-0.0009005059,-0.0032516655,0.0020088644,-0.0042577605,-0.0040625473,-0.008509421,0.0022432622,0.0027991764,0.0070529953,0.0013916435,-0.0072348225,0.008466582,-0.0007172626,0.006390759,0.002423834,0.0022888733,-0.0013646585,0.00911575,0.007283503,-0.0038488815,0.008445864,0.012478311,0.00857033,0.006693781,0.0074648084,0.010492444,0.0055111595,0.008172697,0.005728514,0.0048973677,0.01102284,0.009247742,0.01183062,0.010261206,0.008132291,0.00029468234,0.0049076374,0.010995094,0.010776453,-0.003277763,0.006484847,0.0041081603,-0.0016609884,0.002327116,0.007325231,0.0056354865,0.007925265,-0.008931645,-0.0050908145,0.0042101853,0.00013378414,-0.002759343,-0.0110219885,-0.0014915382,0.002217487,0.004055565,-0.011151843,0.008354706,-0.008141381,-0.009496956,-0.005698494,0.0019056171,-0.0031386863,-0.0055123135,-0.0072268075,0.00144718,0.003874543,-0.004056373,-0.004052647,0.007835644,-0.0044866395,0.008530993,-0.006962016,0.000550949,-0.006755489,-0.0065277074,-0.0028572031,-0.0021224383,0.0036075565,-0.004235546,-0.0043494427,-0.0017962997,-0.00875469,-0.00260607,-0.0063149836,-0.010220805,0.009261365,0.0003314166,-0.0063395696,0.005650025,-0.0023986327,-0.003993135,-0.0013120696,-0.011333382,-0.014466401,-0.0063279783,0.0017300016,-0.0050103427,-0.010869502,-0.0010431783,0.0027740297,-0.010101783,-0.011431118,-0.004837681,-0.012570006,-0.011929449,-0.004787968,-0.00087035267,-0.0031300609,-0.012531469,-0.00458581,-0.0022844463,-0.01046037,0.0011425422,-0.0017928658,-0.01264339,-0.00994439,-0.003726046,-0.0062748888,-0.006447827,-0.004002606,-0.008306182,-0.0073990324,-0.011678113,-0.0059960294,0.0008732982,-0.0057068523,-0.0010481746,0.0058145067,0.003477712,0.00084242376,-0.006630834,-0.00033083998,0.00041306677,-0.00041040056,-0.0008614182,0.006541921,0.0075026564,0.0013996132,0.0023405014,0.010488931,-0.0036804355,0.0056124157,-0.002479594,-0.0065756803,0.0005238932,0.01055273,-0.004099146,-0.00075446797,0.01031134,0.0053893565,0.011241056,0.0065978463,0.012013247,0.009990602,0.007738729,0.0011534415,0.012838612,0.0014526306,0.001832957,0.0138014695,0.008751457,0.00937949,0.015550029,0.016759826,0.01197649,0.0029955802,0.0027652043,0.00812366,0.0127649205,0.007876256,0.008403155,0.0018307472,-0.0037556367,0.0002394631,0.010329925,0.011005787,0.009403009,0.013131374,0.009233443,-0.0011032359,0.0013670521,0.004856327,-0.0001976742,0.0112959575,0.010084825,0.012155695,0.009219521,-0.0015058682,0.011433146,0.006539599,0.006453996,0.0030115275,-0.005019701,-0.0040146443,-0.009647969,-0.0019918298,0.0070244623,-0.008164951,-0.0060058157,0.0054641566,0.004092216,-0.011025206,0.0033359302,-0.004218384,-0.009202877,0.007413914,0.0062238066,-0.003979811,0.004558526,-0.0042390595,-0.0032817537,0.0070315762,-0.003432504,0.0007648498,0.01181091,0.005927078,0.010575516,0.0039011952,0.012972614,-0.0039917193,0.00971922,0.009362349,0.001403692,0.007675669,0.0020516785,-0.0004033554,0.0018544995,-0.000406582,0.0032612097,0.010038589,0.0031118381,0.010082928,-0.0068234405,-0.00298576,-0.0049426276,-0.005966553,0.0071659293,0.008505511,-0.00856785,0.0027352956,-0.0034788016,0.0023254817,-0.0100937225,-0.0012811114,-0.010140744,0.0011418061,-0.0011640347,0.0054949764,0.010579783,-0.0008542831,0.0075489134,0.008452925,-0.0072356323,0.008356802,-0.005849343,0.009310052,-0.0050289594,0.00006771559,-0.0033384077,0.005142581,-0.0048892037,-0.0024392772,0.002197994,-0.00030725828,0.001996356,-0.0027542673,0.005813355,-0.00056905777,-0.009669864,0.008481963,-0.001017578,0.010061899,0.000080890444,0.006449909,-0.007622233,-0.0012344148,0.003504492,-0.0058101094,0.00032733948,0.0009358025,-0.0054629324,-0.010424471,-0.006743984,0.0012366641,-0.012833001,-0.009525876,-0.0030896936,-0.013440235,-0.0049219676,-0.0061353096,-0.0035178761,-0.011526976,-0.011074522,-0.008236284,-0.011874228,-0.010948261,-0.0009199233,-0.0071229013,-0.007226097,-0.0026559078,-0.004403605,-0.004896504,0.00029413792,-0.009142931,0.0016627077,-0.005518436,-0.013232117,-0.005217006,-0.009210496,-0.0085116895,-0.013344911,0.0019017217,-0.0045959596,-0.0045452616,0.0051919543,-0.005689437,-0.0039539095,0.005917231,0.0051518935,-0.0044114846,-0.002429841,-0.01021506,-0.008254278,-0.0034661398,0.004461679,-0.00920858,-0.0042303344,0.0012664938,0.0015899227,0.009268142,0.003530781,0.0059638415,0.0029926603,0.008282679,0.012692827,0.007224023,0.0074541387,0.0076639676,0.005193364,0.003060749,0.00016245975,-0.0009620441,-0.00448678,-0.0024059697,0.0059891446,0.007130318,0.013501085,-0.0043769954,0.006819349,0.0069947285,0.0057806955,0.014723954,0.0007735171,0.009253885,0.00312425,0.0064461296,0.008884671,-0.00088987895,0.004977218,0.006149924,0.008259232,-0.002453171,-0.003743494,0.006756596,0.013291967,0.004868901,0.011485734,0.014925561,0.0033229894,-0.0001695785,-0.00093994447,0.008501349,0.0017486952,0.005188244,0.013680042,0.0006214375,0.0097962115,-0.00016266106,0.012012838,0.0071424567,0.0032594702,0.0024120645,0.012746948,0.0052533974,-0.0052767447,-0.006988209,0.002488795,0.006816123,-0.007350742,-0.00827295,0.00565351,-0.0020540084,-0.010657555,-0.003560936,-0.0066260193,-0.0017928751,-0.002270925,0.001200342,0.0009079523,0.0014081554,0.0018441905,-0.0037903239,0.007942158,0.0047621303,0.001132013,-0.0008708124,0.0035152996,0.003463216,0.006514724,0.008093645,0.008149153,0.010938709,-0.0035166896,0.006027985,0.010849232,0.0073553794,0.012754728,0.012150608,0.014660225,0.010667108,0.0034785145,0.0036931077,0.004162087,0.010395032,0.0018434408,0.007172343,0.009329972,0.0021903438,0.010749231,0.008231104,0.0036165034,-0.0048224614,-0.0023819918,0.0083101,-0.0060423426,-0.0002609957,0.0037735112,-0.0070316535,-0.010380676,-0.0059991595,0.0024167884,-0.004580273,-0.0007292832,0.000014498446,0.00323756,0.0062237745,-0.0027021621,0.0013070974,-0.005191856,0.004187614,0.004095735,0.0066620503,0.0057837144,-0.0019800863,-0.009066347,-0.001757521,-0.0017795353,0.0037617101,0.0027783639,0.0076141087,-0.0014771593,-0.0073737036,0.0067452863,0.0046693743,-0.00778789,0.0013482028,-0.00042396993,-0.0011162644,-0.00061498187,0.004820793,0.001292354,0.0011227701,0.008185103,-0.012151006,-0.010768417,-0.0037796057,-0.0055918843,-0.008592585,-0.00030587928,0.0026835538,-0.006727588,-0.00894393,-0.015565928,-0.0039736778,-0.014610557,0.0009596844,-0.00056835177,-0.010572721,-0.0009090644,-0.011110735,-0.0067548,-0.0018558824,-0.0065751844,-0.013300232,-0.0052235415,-0.0039282846,-0.0034413459,-0.007645398,-0.0072599035,-0.008902803,-0.000051578754,-0.0024270415,0.001888278,0.0063200393,-0.0025513542,-0.010475892,0.0039452226,-0.0011780492,-0.005201105,-0.005860164,-0.006151035,-0.0094853,-0.0039673424,0.0042046336,-0.010055998,-0.0051618568,0.0020946525,0.0061100237,-0.0016125158,-0.0059920596,0.002560711,0.0041720234,0.0027892669,-0.0019080942,-0.00075176224,-0.00810718,0.00009208462,0.0030553632,0.00790238,0.0053015193,0.010655599,0.007684257,0.0076785353,0.002548258,-0.0009997514,0.00066842337,-0.0022809182,0.014149862,0.0074567324,0.0047721895,0.015216056,0.011764584,0.013956841,0.00945531,0.010074813,0.003340134,0.0012350691,0.0082546,0.007619673,0.010174842,0.0053245192,0.012983295,-0.000077033605,0.010867964,0.0042022537,0.0051971097,0.004201207,0.013872649,0.009966857,0.011136984,0.011917217,0.009404765,0.0123890685,0.009300062,0.01071701,0.014057901,0.004811948,-0.0043624835,0.0062106797,0.0073692934,0.0040304135,0.0015312483,0.011744165,-0.0060989396,0.008765055,0.0024393382,0.0054308595,-0.0073446305,-0.009286078,0.0029827345,0.007784028,-0.0018827578,0.0025493517,-0.0031847435,-0.008665183,0.0072074845,0.006536222,-0.0057283323,-0.0013360247,-0.008381489,0.00049618847,-0.0072752265,-0.0022447817,-0.004749878,0.00076905853,-0.0076293987,0.0031178726,-0.005203733,0.01017754,0.00014326611,0.002129595,0.0034482104,0.00093679805,0.0016691812,0.010862977,0.011037629,0.009113477,0.012141589,-0.0018140534,-0.0055642775,0.0045783166,0.012574707,0.008017324,-0.0046022106,0.006548072,0.0037186148,-0.0054972395,-0.002644741,-0.0012297314,-0.0031662653,0.00053347694,-0.001191434,0.0070594344,0.0031183597,0.006194872,0.0069325254,0.007256798,-0.00087871216,0.0020862636,-0.0018928819,-0.00021021359,0.0029211997,0.0026999721,-0.0033486173,-0.009512151,0.004957243,-0.0016151816,0.0064985203,-0.0029526935,-0.002725404,0.007093505,-0.005394036,-0.0014071309,-0.0087164305,0.0065660556,0.0040656803,-0.0030620932,-0.010539088,-0.003408405,-0.0061951843,-0.0080971485,-0.00077016634,0.00045304763,0.003235911,-0.006323924,0.006088101,-0.0006504204,-0.010433406,0.006987001,0.0010013317,0.0021513153,0.00069855526,0.004066149,0.0073485784,0.008981922,0.0021744354,0.0046485015,-0.008980954,-0.008105189,-0.014193855,-0.003294319,-0.008252522,-0.01115197,-0.011102937,-0.0023855108,-0.009839429,-0.012644565,-0.011895233,-0.016468864,-0.011134268,-0.0038462987,-0.00061002385,-0.0049184673,-0.004104073,-0.004961055,-0.012622649,-0.0000037142481,-0.007137843,-0.009812835,0.0033655076,-0.00748606,-0.007740128,0.003511659,-0.008281052,-0.0077010198,0.0012267936,0.00012172117,0.0059882565,-0.0030099223,-0.0046097673,0.006770575,-0.0036666445,0.005231438,-0.0044853585,0.0033386135,-0.007334286,-0.006852629,0.001325519,-0.007110803,0.0028818676,0.0024375385,0.0037536302,-0.0056582717,0.0040354896,-0.006485109,-0.009666118,-0.008040595,0.004083427,0.0068646567,0.00035016998,0.008426705,0.001239708,-0.00056406145,-0.0016905055,0.007609331,-0.0065372484,0.0019078781,0.013496104,0.008747028,0.012424167,0.005067384,0.009636867,-0.0032443027,0.013747554,-0.000044289543,0.007499354,0.0071075233,0.0050150207,-0.0003629144,0.0027819711,0.012083999,-0.0030806058,0.01392215,0.001845598,-0.00004679076,0.0022863348,0.0068165218,-0.0018435239,0.009372723,-0.00008631176,0.011120831,-0.004079244,0.01217881,0.010261435,0.012068667,0.0067820544,0.0051207654,0.0047538737,0.0007621077,-0.0034171455,-0.004580259,-0.0042926813,0.006304744,0.0065688505,0.010737601,0.0029171836,0.0096044345,0.0040033986,-0.005080891,0.008173292,0.006727919,-0.007935897,0.008448789,-0.0015261731,-0.008707367,-0.0071688485,0.001385369,-0.010207015,0.0079266075,-0.006416264,0.00094355183,-0.00040503842,0.0059756986,-0.0019828652,-0.0065095206,0.003728377,-0.003162337,0.008394531,0.00951665,0.0015095543,-0.004172934,0.006470097,0.0053507546,-0.0029079595,0.0008884877,0.009659425,-0.0037824344,0.01161866,-0.0058411355,-0.0040644575,-0.0004020932,0.012156504,0.0080275545,0.010324965,0.006777771,0.009040982,0.00750492,-0.005151294,-0.00030836492,0.013020343,-0.005973704,0.0090353405,-0.005342953,0.0015340319,-0.005558306,-0.0037636412,0.003479201,-0.0050437674,0.0036538818,0.0037977183,0.0028119318,0.0059270114,-0.011245259,-0.00309348,0.007026393,-0.0090426,0.0019173905,-0.0040565818,-0.011780706,-0.00895732,0.0039842143,0.0008127743,-0.010678141,0.00057276787,-0.009824871,0.004743972,0.0032182613,0.00478949,0.005480878,-0.005987089,-0.009760086,-0.006028615,-0.0019175689,-0.011809835,0.00013818308,-0.0069097546,0.00083355326,-0.00050516473,-0.0009649008,-0.004876398,-0.0040418,0.0050910534,-0.009159482,-0.0010741687,-0.008733068,-0.009398304,0.0005765776,0.002177902,0.0031518308,-0.0067698695,-0.001543247,-0.009187027,-0.013524253,-0.011646539,-0.0069731134,-0.008876373,-0.012941576,0.0011754606,-0.009478427,-0.0021314905,-0.0071724243,-0.003915709,0.0018958735,-0.00067483337,-0.0146218445,0.0013258938,-0.016438624,-0.00339384,-0.004302481,-0.014510858,-0.004229987,-0.0056733056,-0.0023199597,0.0000096586355,-0.009260598,-0.0010073064,-0.0005855916,-0.0026336191,0.0031230634,-0.0022246423,-0.0012665904,-0.0019663293,-0.0059373905,0.005243017,-0.0035822783,-0.010889506,-0.012592256,-0.010622275,-0.010351556,-0.0042977943,-0.0037901876,-0.0063519543,-0.012692092,0.00083985104,0.0006172921,-0.010914216,-0.006765151,-0.009712313,0.00057054247,-0.002299198,-0.007889813,0.0044043716,-0.0005286342,0.0072457613,-0.0046893205,0.002591745,0.0047070775,0.0005765863,0.0047314125,0.0030942939,0.002054718,0.0060003945,-0.0038724605,-0.0034211944,-0.004777447,0.0009729401,0.00095513964,0.003466225,0.0100471405,-0.0031367152,0.0013088278,0.012289653,0.008205408,-0.0029573895,0.011890366,0.000101047444,0.004752979,0.012531637,-0.0026607362,-0.0040393905,0.009036392,0.004866746,-0.0010700513,0.0101467855,0.0050296728,0.0068430584,0.0032527233,0.0016216029,0.000056117027,0.002175967,0.003008999,0.009056606,0.0030271986,0.005245219,0.006515531,0.009134246,-0.0022149705,-0.0032242227,-0.0032935839,0.0022517517,-0.008147947,0.004222362,0.008775241,0.0027748016,-0.00059073116,0.00039778432,0.0071860463,-0.005231033,-0.0037936573,0.002669833,0.00788478,-0.0025573361,0.0010810626,0.0056676124,0.00012672073,0.004123512,0.0029143242,-0.0060595893,0.004108373,0.0057104,-0.0016722545,0.010222518,0.00043293065,0.011256292,0.008392725,0.006910376,0.006887335,0.00757275,-0.0011167987,0.0020570084,-0.0016910122,-0.0052957893,0.0036082864,-0.00556269,0.009468803,0.0054535363,0.005479023,-0.0049263733,-0.0052200896,0.0048106285,0.009521858,0.0074409517,0.004509789,0.0019423418,0.00650264,-0.008066418,0.004494877,-0.007851285,0.00044531815,0.0059466525,-0.006913197,-0.008878192,-0.003925889,-0.0026264428,-0.0013681164,-0.0026433945,-0.0056391926,-0.0059888214,-0.012244507,0.0032453784,0.0049052956,-0.009475744,0.004790946,-0.002825744,-0.0028577705,0.0025096987,0.0008129917,-0.008184297,-0.008745732,-0.00908027,-0.00042941325,0.0023715487,-0.0054344293,0.0014452175,-0.0058388757,0.0052947993,0.004833993,0.0046511884,-0.0026410292,0.00368003,-0.009032745,-0.0073153884,-0.011104183,-0.001837282,-0.0024792387,-0.0049761944,-0.006000051,-0.007615553,0.00013608574,-0.0054877936,-0.008498655,-0.0025435796,-0.0059102867,-0.012260511,-0.008457494,-0.0038739012,-0.017095208,-0.01416079,-0.011719828,-0.0054338924,-0.0075357696,-0.013745681,-0.0031817118,-0.007193832,-0.0017878041,-0.0016014816,0.003043436,-0.0018328462,-0.010288602,0.0042958944,-0.0073476285,-0.011009371,-0.007139276,0.00085519516,-0.0015640137,0.0039092503,0.0015110909,-0.013312864,-0.0012072341,-0.008435161,-0.0036070447,-0.0024847153,0.00031963867,-0.0079688635,-0.005129548,0.0036387285,-0.011574107,-0.00070161495,-0.004759809,-0.011288976,-0.013084197,-0.0053263754,-0.008947617,-0.0045431936,0.0040418333,-0.009911895,-0.009322294,-0.003753012,-0.007425481,0.0034373498,-0.0047199004,0.0070654517,0.003370545,0.0026512379,0.0053773075,-0.004829618,0.0031478896,-0.003043091,-0.0075623835,-0.0020951638,-0.0056972364,-0.0028830667,-0.008881038,-0.0007357277,-0.0044295955,0.004639129,-0.0023486416,-0.0022797014,0.003912467,0.0061338036,0.00805032,0.011702553,0.008059893,-0.0011149885,0.00520114,0.01120327,-0.001583222,-0.0020381354,0.009589697,-0.00066564936,0.016303426,-0.0039568697,0.010003696,0.011285634,0.013196499,0.009446309,0.009142326,0.010842878,0.014767204,-0.00032910454,0.011717835,0.003784172,-0.00041225945,-0.0038953328,-0.003171838,-0.00008968512,0.0025693758,0.004734745,0.008073587,0.0072477004,0.006364908,0.010470036,-0.006681416,-0.004743358,-0.007914382,-0.0021098075,0.00057702366,-0.0029406184,-0.008890247,0.007952596,0.0015401259,0.0034380076,-0.0035313235,0.008045965,-0.0026137054,-0.0038491092,0.0015900983,0.007647176,-0.007559394,0.007983569,0.004855042,0.0037311297,-0.0020450242,0.0025811926,-0.002277005,0.0059206607,-0.0048128027,0.0077237994,-0.00065927685,0.0011444801,-0.0037606074,-0.0039604604,-0.006018024,0.008607489,-0.0018976979,0.0043312423,-0.00026654662,0.0026480118,0.0032934756,0.0108632445,-0.0019635775,0.0071528857,-0.0026064054,0.004368603,-0.0008714983,-0.005647334,0.00010754794,-0.010539704,0.0026985642,-0.0021125292,-0.003285154,0.0064906594,-0.008951517,0.0036470662,-0.0016801719,-0.0025662084,0.0006146343,-0.014521323,-0.0077349884,-0.007032438,-0.013346892,-0.002950309,-0.006973249,-0.0056847483,-0.0038789848,-0.009992878,-0.010650785,-0.009995406,-0.00148764,-0.0049132323,-0.009174195,-0.0035686078,0.00023261197,-0.009504337,0.00039444584,0.0048281346,0.006301725,-0.005714309,-0.0061651776,-0.00160899,-0.0042535765,-0.00046655705,-0.008745798,0.0025054545,0.0011982947,0.0036901918,-0.0061751264,0.0032991145,-0.0018833302,-0.010066792,-0.008130894,0.004780589,-0.0031754095,0.006455918,-0.006349864,-0.003170448,-0.0036954759,-0.011701558,-0.011206779,-0.007175509,0.00076398405,-0.010086132,-0.0016479578,-0.011406038,-0.005782315,-0.006390664,-0.004876228,-0.012517968,-0.011398764,-0.009974909,-0.004831942,-0.005627588,-0.00024087858,-0.0029623306,0.002346039,-0.000074741336,-0.0115806395,-0.012070377,-0.00092029024,-0.012139981,-0.009052371,0.0036072894,-0.0145473005,-0.005630689,0.004260691,0.0026372254,0.0010968073,-0.009878457,0.0050843656,-0.01024257,-0.005723247,0.0019509097,-0.010222732,-0.009424685,-0.007455792,-0.009807429,-0.009806148,-0.001912648,-0.0006454917,-0.013867215,-0.00042748067,0.0035105597,-0.0038383652,-0.009936085,0.0056444043,-0.005957866,-0.0036502886,-0.0020040579,-0.004807021,-0.006558121,0.0069266525,-0.004445339,0.001682238,-0.004255943,-0.003013676,-0.0034653782,0.003410381,0.003110518,-0.0077124787,0.0007090088,-0.0022592011,0.0066143195,0.006264026,0.0037454248,0.0029162215,0.006587424,0.007681406,0.0008456427,0.002613738,0.0012191,0.011092955,-0.00031613515,-0.000025281483,0.010484942,0.0020346094,0.0016743792,0.00531554,-0.0024010343,-0.0022913648,0.010387249,0.0058384747,0.012284056,0.0014278373,-0.0029075914,0.006151546,0.008301785,0.009886392,-0.0037289842,0.011413682,0.0015080355,0.00050154,0.0032254695,0.00877693,-0.0023633738,0.006511982,-0.006469153,0.0056992644,-0.006719351,0.0064514284,0.0022060273,0.0023712954,-0.00040447764,-0.003549651,-0.0006283059,-0.0027711247,0.0034401673,0.0069348207,-0.0017189285,-0.0058935,-0.006098914,0.0003565506,-0.009387874,-0.00938569,-0.0039578034,-0.000015438087,-0.00653626,-0.0018625488,-0.00016571223,0.0019219498,0.004919757,-0.0006017019,0.0041370695,-0.001995484,-0.0018466718,0.0050094146,-0.0073150736,0.008239779,-0.0054841316,-0.00075421756,0.0061934376,-0.0062700273,0.004591085,-0.0069933264,-0.0064714565,-0.008393625,-0.0026407072,0.0013693968,0.0033223736,-0.004359201,0.00073748815,0.004388203,-0.0047188527,0.005735895,-0.0024583722,0.0026996336,-0.0050356085,-0.0067933695,0.00036978637,-0.0021795747,-0.013057475,-0.0031412428,-0.00039822015,-0.012078119,-0.0031002937,-0.00961919,0.001817435,0.0047085756,-0.013259439,-0.004749816,0.0044546262,-0.0040525934,-0.00083157275,0.00095930166,-0.009781373,-0.0039292197,-0.0005440428,0.0026464444,0.002693661,0.003114134,0.005402481,0.0065774783,0.007723675,0.00049254997,0.007100348,0.006831469,-0.0013925093,-0.008415268,0.003622632,0.004325863,0.00061259215,0.007190591,-0.00045269608,0.0067054536,0.00042994955,-0.0011556441,0.0057474016,-0.014748232,-0.004293987,-0.008261774,-0.013326415,-0.0023857774,-0.008878509,-0.0029886556,-0.013616778,-0.012352032,-0.006286534,0.000020889409,0.005064917,-0.00024321291,-0.0040018414,-0.00912278,0.00264663,-0.008241933,-0.0016516608,-0.0022998247,-0.0074539767,-0.0110184485,-0.001832428,-0.008565407,-0.0075703673,0.0036200103,0.006501514,-0.00055363233,-0.008651636,-0.008971235,-0.012160044,-0.010850311,0.0020794326,-0.01157818,-0.008838411,0.00068099535,0.00080882886,-0.0038448598,-0.0037317213,-0.0008636185,-0.007849168,0.0000722131,-0.0024829651,-0.008789807,-0.001768342,-0.0072516594,-0.0028950153,0.003505426,-0.00942997,0.0015432442,-0.009659536,0.003000459,-0.004173539,-0.0069269952,-0.003594812,-0.0067992434,0.0069451816,0.0024383913,-0.0070967437,-0.0061676083,-0.0033096143,-0.012398421,-0.009415985,0.0059669525,-0.008542031,-0.00046666226,0.00085482706,-0.008082162,0.0003971242,0.008724535,-0.005295805,-0.0028644255,-0.0045003165,0.005689318,0.0076678307,-0.003965277,-0.0038922084,0.0015797095,-0.0049303784,-0.00619863,0.008162525,0.00092726125,0.01067739,-0.000454226,0.0016714403,-0.0005900037,0.00079656293,0.0055186744,0.0072484184,0.010233858,-0.0013797517,0.011621054,0.0051780655,0.005322354,-0.005337477,0.006265159,0.0046139336,0.006214162,-0.0019117587,0.00066274137,0.005435416,0.003513911,0.002154531,-0.0031166412,-0.0022709882,0.0065681236,0.0024528685,-0.0043125227,-0.011083571,0.0045890408,-0.0077888565,-0.0020526496,-0.0014146047,0.0056395023,0.00020809619,0.004331726,-0.00402689,-0.00588213,0.0012486032,-0.0052394266,0.005268214,0.0019697286,0.0055699265,-0.0038770672,0.002533351,-0.006352988,0.00559468,0.00095005,-0.0035864888,0.0049159797,-0.00825833,-0.0052150954,0.0037275606,-0.0056792283,-0.0044857296,-0.0037374394,0.0023384378,0.00015258239,-0.0020534918,-0.0059421826,-0.006307577,-0.0023192735,-0.009305496,0.0062608793,-0.010383701,-0.0050280164,0.0066365986,-0.007969449,-0.009484469,0.0066208444,-0.0024648327,-0.0029684906,0.0011015334,-0.008837299,0.0042591314,-0.00621626,-0.013659585,-0.008395756,0.0011840237,0.003158184,-0.0016135343,-0.0063799126,-0.008554621,-0.0024985406,-0.003801906,-0.0028701713,0.0032272139,0.0016798096,-0.0063610626,0.0059662284,-0.0027604094,0.0011277574,0.0062668063,0.006232978,0.0077332337,0.0049958206,-0.0012824542,0.0047122994,-0.0007825796,0.00019670944,0.008438717,-0.0020397496,-0.007139756,0.004505528,-0.009659014,-0.0016387772,0.00037805995,-0.0016922214,0.0007327181,0.0035768996,-0.00754109,-0.0054711415,0.008960182,0.0024416586,-0.004424409,-0.01041122,-0.011003395,0.0030461776,-0.011256292,-0.00042902603,0.0026314596,0.004745314,-0.0017535057,-0.0035421466,-0.008458986,-0.01034395,0.004663654,0.0009605113,0.0035464482,0.0010455127,-0.0068320343,-0.004335353,0.0003075438,-0.0052913073,-0.010114826,0.0010740678,-0.004361741,-0.000026244521,-0.0012601826,0.0016610206,-0.007422196,0.002699086,-0.0006100859,-0.008373988,-0.0043430757,-0.002577844,0.0045324187,0.00011240995,0.0027286739,0.001670138,-0.0052808067,-0.010688777,-0.008858918,-0.0018465426,-0.006609468,0.0017407667,-0.006684264,-0.0077774734,-0.009906414,-0.011779755,0.0023199434,-0.0060734525,0.0015239512,0.004697596,-0.0051326915,0.00748918,-0.0043627582,-0.0018054494,-0.0041295933,-0.0039326926,-0.010913301,0.0028512054,-0.002098241,-0.0011208908,-0.0073185824,0.006864396,0.005999875,-0.007470126,0.006081051,-0.0074901013,-0.0010499436,0.007901489,-0.00025257716,0.0039953254,0.005593906,-0.00020451356,-0.0022408154,-0.0035127508,0.0071431077,0.00562839,0.009739975,0.0023944518,0.003644941,0.0004912726,-0.002576541,0.005721861,0.00093563856,0.006450758,-0.0029373625,0.00882806,-0.00078240543,0.0005164058,0.0035254462,-0.0042056595,-0.0045978236,-0.004270492,-0.003827015,0.0074365837,0.00009410203,-0.009059692,-0.0067348466,0.003399335,-0.0065033096,0.0072446014,0.0049179224,0.003267699,0.0057217786,-0.00957743,-0.005885876,-0.003536692,-0.011213354,0.0020172049,0.0018416479,0.0017805764,-0.0082124295,0.0022714303,0.0018895726,-0.00522472,0.0014503312,0.00047181678,0.0041393884,-0.010708166,-0.0051590074,-0.0065732934,-0.004371675,0.0054357266,0.0059600016,0.0048020454,0.0018180141,0.003395104,-0.003929165,-0.00024746763,0.0030366525,-0.007570997,0.004049104,-0.0025751335,-0.0049682027,-0.0011925386,0.0050669545,-0.0022558898,0.010707229,-0.0032087823,-0.003444896,-0.0041791094,0.0007954018,-0.0036268695,0.0018599663,-0.005883921,0.0051806555,0.00022259341,-0.0019104426,0.0056888624,0.0075176507,0.008119014,0.0068311454,0.002752462,0.009244097,-0.008500065,-0.0032855235,-0.0043062777,-0.011401106,-0.008518956,-0.0073035085,-0.0112007465,-0.0006919635,0.0034119983,-0.009493821,-0.0057443283,0.0061381035,-0.008916638,0.004961136,-0.0033214104,-0.008676326,-0.0010356338,-0.0032294767,-0.003985066,0.0005596866,-0.0072676716,0.0018718749,0.0011977421,-0.0049333866,-0.007500645,0.0036858069,0.0012340196,0.0025164303,-0.0025909347,-0.009863904,0.00093681633,-0.0119362315,-0.0105073005,-0.00015792181,0.000007972264,0.0045149154,0.0013753738,-0.007231199,-0.012143038,-0.0005236122,-0.009976669,-0.012417201,0.0023167238,0.0038479625,0.0030057286,-0.014089353,-0.012683118,0.0000041111703,-0.00080455473,-0.002852007,0.0063940124,-0.0036265578,-0.0073953243,-0.0048981784,-0.005124446,-0.00073350576,-0.0049821716,0.0007537914,-0.009677484,-0.004745438,0.005329147,0.0046779695,-0.008509828,0.0028978346,-0.010977429,-0.00630328,-0.0033368024,-0.00798287,-0.0074538724,-0.002079967,0.0076473444,-0.0042228485,-0.0039498634,0.0044008847,0.0042553074,0.001775289,-0.0026018561,-0.002975723,-0.0019697887,-0.012215622,0.0036958482,-0.0063119303,-0.010547724,-0.0011687265,0.0013076311,-0.0071659,-0.006093371,-0.0050887917,0.0014395746,-0.0073751896,0.0028750203,0.0060377237,0.0049568173,0.008137315,0.0051927837,0.007444281,0.0024715872,0.0036149353,-0.006590125,-0.0014808304,0.009785776,-0.0011702116,-0.0055828774,0.0031531868,0.0053727473,-0.0021522678,0.006223463,-0.00267665,0.004440955,0.0034899972,-0.0050234008,-0.000373167,0.010690166,0.002366864,-0.0020703624,-0.0015050949,-0.0036732792,-0.00325929,-0.002727006,-0.0021520718,0.005912594,0.002494789,0.011803369,0.007076112,0.010263583,-0.0020120267,-0.0042083426,0.00047375733,0.006270127,0.011599987,-0.0043553337,0.002747867,-0.003188071,0.0015631971,-0.0089485,-0.00943662,-0.0045902487,0.008245423,-0.00026674132,-0.0010389705,0.005241771,0.0073971306,0.00035683202,-0.0039360174,-0.001854844,-0.0027566955,-0.008290512,-0.007888404,-0.014177575,0.0031325459,0.0009968813,-0.012634419,-0.0040648137,0.0031983391,-0.01015868,0.003985261,-0.006050225,-0.0105640115,0.008752933,-0.0022442327,0.009810084,0.0001578169,-0.0037859594,0.011357374,0.006893815,-0.0025350337,0.010366026,0.00939649,-0.0037605343,0.011699336,-0.003739014,0.0018171432,-0.0018652035,0.0030034136,0.0030817438,0.0017693158,0.008410328,0.007727201,-0.003390365,0.011449714,0.003003265,-0.0014673603,0.0063804593,0.006721626,-0.0059900107,-0.005603292,-0.0022883401,0.0020354658,0.0042997603,-0.0063143275,0.00002324025,-0.0065279985,-0.006521352,-0.00035049606,-0.0015598782,0.00096123706,0.003726885,-0.009031829,-0.004808351,0.0056893537,-0.0035607514,-0.010887428,-0.0068512587,-0.0052483864,-0.0058955248,-0.006373595,-0.00011455653,0.002516239,-0.0060667978,-0.0017657141,0.004264072,-0.0013462974,-0.004120983,0.007359905,0.008354349,-0.0023097915,-0.005534777,0.004639372,-0.0019247084,-0.0123931365,0.0025950887,-0.005680764,0.0028080365,-0.008906786,0.006660774,-0.00309779,0.0033485843,-0.006127017,-0.007548138,-0.006190581,0.00037936567,-0.0040326174,0.0010113148,-0.01026928,0.0022836935,-0.0071920543,-0.0073181973,-0.0080101555,0.004826963,0.004565789,-0.00543363,-0.0073012384,-0.004802285,-0.0024452757,0.0012173086,-0.005594991,0.004720366,-0.00084425224,-0.0028055406,-0.0029543515,-0.001553146,0.0052270163,0.0062804045,0.0053098593,0.0055014906,-0.0061606807,0.0048082313,-0.008855298,-0.0076133776,-0.00826939,0.0035156976,0.00505311,0.0068915174,-0.008934828,-0.0031323682,0.0026517757,0.00037550722,-0.0039061457,0.00057793444,-0.0009461097,0.007182901,-0.00950133,-0.00040413588,-0.0092529,-0.007549253,0.00086555234,-0.008118042,-0.0043021003,-0.012200828,0.0031972402,0.007085225,0.0017242411,0.008795059,-0.0061914516,-0.005231442,0.0021819226,0.00829917,-0.0026089349,0.0071234615,0.008976016,0.005236446,0.0005174352,0.008200658,-0.003133576,-0.00094222696,-0.000113881804,0.0069561135,0.009734137,0.01194106,-0.0004914485,-0.00020928585,-0.0011499188,0.0048296964,-0.00338734,0.01355597,0.012474908,0.000094026436,0.0017546206,0.010503455,0.0041625816,0.013435444,0.011150771,0.010476173,0.0061890706,0.011381387,-0.0041317195,-0.00083378085,0.0056013693,-0.002132875,0.012010722,0.005388244,-0.004204498,0.0049959426,0.0052870554,-0.0020892038,0.00038317443,-0.0070171487,0.0037100697,0.007675124,0.00879891,0.007929084,0.0046271277,-0.0068960674,-0.008195105,0.0064640455,-0.0055251615,-0.0059430217,0.005919384,-0.012298738,0.0035521477,-0.002808759,-0.0022860786,-0.0054927277,-0.009305565,-0.0051174616,-0.004750663,-0.0065777455,0.004778197,-0.002610752,-0.0015652747,0.0016196022,0.0057261167,-0.002807732,0.0073537584,0.0009780779,-0.0025169377,0.009812459,0.005406614,0.0032158338,0.0040001827,0.007451581,0.0022571047,0.0039787507,-0.006230148,0.0021134065,0.0039485893,0.008579446,0.00017718229,0.0013664451,-0.0047528124,-0.00029339443,0.00014030996,-0.004237829,0.006723799,-0.005572646,-0.00022508441,-0.0033774169,0.006670553,0.003987639,-0.0032463428,-0.0024063038,-0.001463254,-0.0022991651,0.006627862,0.0058067115,-0.0033059407,0.0004911701,0.0025972386,-0.0053005237,-0.008549364,-0.003771774,-0.008298882,0.002236431,0.0029429877,-0.008014119,0.006764801,0.005520347,-0.0009083336,0.008600942,0.0007335666,0.0048563597,0.00032034126,0.0062926807,-0.0032975774,0.007296701,0.0033846293,0.008074671,-0.008377679,-0.007837856,0.0064643277,0.0031056972,0.005323998,-0.008634155,0.005318088,-0.00046624546,-0.0014185271,-0.0026385775,-0.003478593,0.0049776975,-0.010082963,0.00066269777,-0.01003893,-0.009807973,-0.00824497,-0.002429164,-0.0021926414,-0.0034168991,-0.0042753713,-0.0022449573,-0.004435947,-0.0051862183,-0.00026444357,0.0027304015,-0.00074745883,0.005652708,-0.0059959204,-0.008752705,0.0041094082,0.0063140104,-0.0006370966,-0.0019152975,0.0043936195,-0.0030950438,-0.0035767923,-0.008758056,-0.007482908,0.0048866854,-0.004814446,-0.0046517164,0.005031362,-0.0028253589,0.0035308048,0.0042863986,0.0000030920735,-0.0004256073,0.008224015,-0.004913451,-0.0071036867,-0.0065279007,-0.006217248,-0.0060810084,0.008414851,-0.0034417438,-0.005457294,0.007043376,0.0080308,0.008872325,-0.010277456,0.0010376218,-0.0067930664,-0.009217237,0.0012940862,0.0023459417,0.006950895,0.0026453277,0.0026081915,-0.008990108,0.00909988,-0.0048052836,0.0016131706,0.008933368,0.005967217,0.0077949646,0.00739667,0.007868712,0.0015426439,0.0025385555,0.011334798,0.0035393483,0.002221647,0.008750426,0.0051580546,0.006518791,0.009828677,0.0082094995,-0.0004218527,0.0066499375,0.0052716276,0.007961664,-0.00039748388,0.0077083353,-0.0016019215,0.010292513,0.01136985,0.0010077832,0.0011363304,-0.0034407892,0.010767945,0.00047300258,0.0084641045,0.012408917,-0.0011322999,0.0051559196,0.0041162577,-0.005816018,0.00726474,0.009873636,0.011751619,0.000036317575,-0.0070630475,0.0010101665,-0.007494683,-0.0013370398,0.008747572,0.0054322085,0.001240593,-0.0084127495,-0.005391588,0.004760214,-0.011125994,-0.012726089,-0.013097009,0.0031561244,-0.00086017407,-0.008446105,-0.0018214684,0.005353674,0.0067808656,-0.0079979515,0.0056148167,0.008477364,-0.0001988579,0.009024328,0.0063664773,-0.0003200228,0.0014931837,-0.0058687697,0.004546077,0.0020987326,0.007363511,0.0041105505,0.0014077584,-0.0067011556,0.0006398835,-0.007018085,0.003510369,0.00043043835,0.010702865,0.0057600816,-0.0004743843,0.010531009,0.006250974,0.0012059361,-0.0058950284,-0.00447369,0.00850464,0.0008381298,0.0048355428,-0.007834196,0.0030166823,-0.00007323407,0.0042959726,0.0009306342,-0.004325031,-0.0073039476,-0.0046696,0.0021009836,0.0044231988,0.006300997,-0.005796909,-0.0017134864,-0.0045916834,-0.005786559,0.0012271019,0.0040361285,-0.008708679,0.00064712623,0.0021559035,-0.004773155,-0.008943519,-0.0025162378,0.0027031857,-0.0003280584,0.0021504494,-0.004880621,0.00013642205,0.0016557564,0.008321168,-0.0030304682,-0.002119888,-0.0025868516,-0.0068249768,-0.00018944718,0.0031040586,-0.0037674902,-0.009357761,-0.009100427,-0.0010832364,-0.009365707,0.005316788,0.0077796686,-0.0003571719,-0.0029294253,0.0022262128,-0.00044351915,0.0032545307,-0.011174821,-0.0032673152,0.0019548973,0.0025636742,0.0029603885,0.0004236347,-0.008665854,-0.0061509092,-0.0034622634,-0.009228684,-0.00828494,-0.0027500603,-0.0018429087,-0.005250885,0.005619923,0.0039683846,-0.0012169448,0.002970038,-0.0029288274,-0.0014049916,-0.005647973,-0.009055488,-0.008105736,0.0042905575,-0.005530697,-0.0075460887,0.005359438,-0.0025435002,0.006530351,-0.0068807914,0.005241048,-0.0051565915,0.0026493995,-0.0044548274,-0.0018891785,0.003895723,0.0068835644,0.0006264065,0.006068715,-0.004649365,0.009355337,0.0027088157,0.0038200163,0.0050002895,-0.005463637,-0.004745681,-0.0058589773,0.006651835,0.01128636,0.002882451,-0.0011040571,0.0003641224,-0.003982955,-0.0021602425,-0.0068111788,0.0036755279,-0.0071560945,0.0010349094,0.0016326692,-0.0035449234,0.0024799637,0.010686984,-0.002746195,0.011868685,0.0064243553,-0.003371603,-0.0005605199,-0.0062419735,-0.005202538,0.0010647818,0.0065868977,0.0033687681,-0.0026563331,-0.0019614117,-0.0053283707,0.005262451,-0.0047063674,0.005931454,-0.0020288483,0.007707618,-0.00429906,-0.0009628109,0.012911546,0.008416406,-0.00046922825,-0.00096388976,0.009840055,0.010050368,-0.0058101504,-0.0052281967,0.009621571,0.010630604,-0.0046837865,0.000889395,-0.0007640484,-0.001523216,0.003061153,0.0004971741,-0.008237622,-0.0015453259,0.0070915725,0.003280644,-0.006729575,-0.0023404409,-0.0048027206,0.0025518676,0.0013297687,0.003961808,-0.0057168673,-0.0018591302,0.0058020735,-0.0012624939,0.0030330918,-0.001029392,-0.007669082,-0.007733617,-0.0029261708,-0.006753128,0.0066005043,0.0053718523,-0.005482535,0.011240854,-0.0061045624,-0.0025562136,-0.0043190364,-0.0009418202,0.0033131628,-0.004186353,0.006898392,-0.000027316775,-0.000099296005,0.0029523224,0.0019949842,-0.005751302,0.004226355,0.008716653,0.011365212,0.0057536615,0.0022290668,-0.0012669037,0.007337479,-0.0064256517,0.004454839,0.0007186834,-0.0008004449,-0.0056104623,-0.0059616785,-0.0016691316,0.006111591,0.006290143,-0.007217318,-0.0082921535,-0.006043089,-0.00062399864,0.0059523066,0.00568659,0.00033636563,0.003262968,0.0059063714,-0.009256117,-0.005430438,-0.008673133,-0.0065214876,0.0024260134,-0.0077415346,-0.0048895692,-0.004676063,0.0016917898,-0.003561181,0.0067583,0.003397303,0.0034033516,-0.0006627749,-0.003519789,0.0022357157,0.0051059434,-0.008138162,-0.0064130356,-0.007963513,-0.0043815826,0.004497359,0.0013128609,-0.008603946,-0.008667247,-0.009139858,-0.008211398,0.00048161973,0.0047011552,-0.01301736,-0.006517645,-0.003225744,-0.010296161,-0.005406437,-0.0090137655,0.0008747546,-0.009496749,-0.0025828874,-0.000506915,-0.010265524,-0.0062609515,-0.007600083,-0.011508047,-0.0059200525,0.008072998,-0.0042788023,-0.0044800555,0.0055503747,-0.0013347708,-0.004544226,-0.009839308,0.0015235835,0.0035222967,-0.0038189837,0.0046130545,0.0038646185,-0.0075464807,0.0010264734,0.00199221,0.0053088367,-0.0017716864,0.0011804787,0.003467082,0.011415299,0.0006236347,0.008275269,0.0053226734,-0.0005482767,0.00039025967,-0.00085410645,0.0042473585,0.0013026539,0.004965687,0.004653225,0.0019878533,-0.002467219,-0.0043303613,-0.006024871,-0.002183235,-0.004428397,0.002256325,0.0021026134,-0.0058278693,0.008775516,-0.004861941,-0.0013871366,0.0033284905,-0.003751934,0.0075230566,0.010799071,0.006270215,0.00029436048,0.010376814,0.004092497,0.009947642,-0.004139378,0.0012416753,0.007537931,0.004336104,0.0030524842,0.00019222885,-0.0006705704,0.004259943,-0.0018004106,0.0062273205,0.009516216,-0.00022552247,-0.0036451414,0.0114481915,-0.00009924298,0.009704339,-0.005440392,-0.0006945012,-0.00365622,0.011933425,0.0027973289,0.010383554,0.005110615,0.0031591274,-0.0026914359,0.009975403,0.005335309,0.008985537,-0.001667468,-0.0057749283,-0.00049190654,-0.005575996,0.00047731918,0.007719344,0.0070586842,0.010045493,-0.0057283835,0.0064227954,0.00026683716,0.0062117158,0.009504823,-0.00064148457,-0.0012649674,0.008574713,-0.0075299907,0.002193023,0.005370348,-0.0021626842,0.008290786,-0.008725763,-0.006520089,-0.0037219306,-0.0015460172,0.010090217,-0.000016279759,0.0109952865,0.005353706,0.0074986415,0.009081531,0.009836583,0.0076712226,0.0049518063,-0.00378774,0.000024939243,-0.0047151577,0.0031857165,0.008011463,0.002126611,0.0048056934,0.0024104912,-0.0021597804,0.0073662195,0.0048225457,0.0037639723,-0.0016892399,0.0056562447,0.003232893,0.0059929146,0.0016768647,-0.0029883666,0.007536024,0.0005281763,0.008719897,0.010587589,-0.0031443336,0.006548779,-0.0027642483,-0.0055360785,0.009250242,0.0036455535,0.0007282634,-0.0072038006,0.0070090233,0.0033814018,-0.007608572,-0.004018238,-0.0069059916,-0.005647404,0.0060029235,0.0027039493,-0.0016992809,-0.0062977923,0.004538278,-0.0029414797,0.0029635828,-0.0006603808,-0.0025618628,-0.0084834425,0.002614602,0.011224205,0.0024238138,0.0006391334,0.0041542663,-0.005709255,-0.011236274,-0.0005754545,-0.0042601856,-0.011744753,-0.0044740336,0.0024339613,0.004932069,0.00566074,-0.008620444,-0.0022750653,0.0076912222,-0.00037513633,-0.0050778226,-0.0069706077,-0.010641632,0.0014417066,0.0044584177,-0.012855107,0.00094680116,0.0010119997,-0.011616277,-0.012011613,-0.0098246895,0.0038603682,0.00096910255,0.00288486,0.0037429028,-0.008221272,0.00057297584,0.003280561,-0.0058788676,-0.0062097353,-0.008166542,0.0069637983,-0.0038269453,0.006536216,0.002120816,0.0005562816,0.00805811,-0.005925865,0.0017316425,0.0025009606,0.0071876445,0.0048165666,-0.0041835145,0.00061352935,0.008586588,-0.0016598104,0.0037270857,-0.0005211369,0.0005217853,0.0002159372,0.008459981,-0.00034719252,-0.0027259646,0.001942673,0.00087531283,-0.007209366,0.008649884,0.0016341788,0.0077611697,-0.0072136642,0.0037785196,0.008239475,0.0019898294,0.0028680237,0.003810896,0.010731718,-0.0022865508,0.0060527907,-0.00043450698,0.0049388264,0.002297137,-0.0016809402,0.005119836,0.0006690624,0.007122,0.0070936326,0.008011854,0.0023726542,0.0023161767,0.00038913265,0.004258309,0.009360912,0.0063632955,0.0014414808,-0.0017867517,0.00055528164,-0.0013009737,-0.0029551582,-0.002176662,0.007750263,0.00853445,-0.0025528867,-0.0029210493,0.0108739305,0.003604814,0.010722643,0.009187458,0.0017073136,0.0066104988,0.005646939,-0.00035377312,0.0039019082,0.0029351357,0.0059074517,0.012276958,0.0077903583,0.005085723,0.0017356933,0.0023817807,0.0023519436,0.008744321,0.0013690272,0.008824414,-0.0019255355,0.005017505,0.0073946724,-0.0032598067,-0.0030614084,-0.004228735,-0.0026712378,0.0017293784,0.009819216,0.008847072,0.006731052,0.0022199496,0.004968022,-0.005445593,0.009135865,0.004800152,0.012176085,-0.0027886708,-0.0026343174,0.0076576537,-0.001584014,0.011786589,0.008900892,-0.0070270053,0.0029919087,0.001532989,0.002853809,-0.0018233807,-0.0042024157,-0.002859632,-0.0030686415,0.0014291845,0.0044581494,-0.001537135,0.006316953,-0.0018432349,0.0088344,0.0032420766,-0.0064169625,-0.00093712343,-0.0021610716,0.010031059,0.009399183,-0.002892212,-0.0075577926,0.0070062117,-0.0040361746,0.0045693708,-0.0037744704,0.00495032,0.00052224955,0.0019376647,-0.0024020262,-0.003866194,0.006768771,-0.0026573227,-0.011863024,0.00087377045,-0.0020952607,-0.011396065,0.0043379674,-0.0013720687,0.0009843954,0.0076659163,-0.0075196223,-0.0042379773,0.0072226184,0.0015053219,0.009006867,0.0068056895,-0.0034430765,0.006506635,0.012196464,-0.008914303,0.003373504,-0.0034834244,-0.0006064211,0.0055529964,0.004921669,0.00050029915,-0.01300349,-0.006357326,0.0029466057,0.0036547994,0.0005643277,-0.009499442,0.0035764049,0.0026795832,0.0021694093,-0.014371547,-0.008591447,-0.0050016935,-0.008206392,0.0010278147,-0.0005417272,-0.008596078,0.002755519,-0.0098405825,-0.0050155786,-0.0034668408,-0.003343223,-0.007613648,-0.011551307,-0.011627421,0.0064537246,-0.0017851313,-0.007363373,0.0046425546,0.004097226,-0.005112784,-0.0038708705,-0.0048382212,0.0018557564,-0.011174493,-0.009566415,0.007378818,0.0073979637,0.00627841,0.0019139918,-0.0066517764,0.0064644692,-0.0011695576,0.005634996,0.009843432,0.014908826,-0.002303056,0.012597292,0.006697775,0.0016566456,-0.0025371574,0.0071918936,0.0015941468,0.0049926294,-0.0008977346,-0.0031233917,-0.0027469697,-0.0017923815,-0.005752392,0.010517949,0.004126169,-0.0005834163,0.0026628284,0.0023811304,-0.004809615,0.010165315,0.006640747,0.009352068,0.009872927,-0.0060122297,-0.0028723045,0.0020120582,0.0036232988,-0.00019236075,-0.0005006561,0.006622843,0.003630079,0.0032281273,-0.008130437,0.000030033654,0.0004832348,0.009136208,-0.0054497267,0.009337105,0.000138591,-0.001126662,0.005437856,0.0037097905,0.0022635234,0.014029365,0.002327975,0.008949566,0.012936666,-0.00058965024,0.0066793947,0.0028225072,0.006050181,-0.0046760985,0.010846564,0.015282555,0.01042148,0.01070015,-0.0014832645,0.011637225,0.013119741,0.009069238,0.0015992791,0.004851149,0.013617837,0.011857848,0.00029965857,0.0039069033,0.006192546,-0.0039333897,0.0039811577,0.007807284,0.00390892,-0.0010585128,0.004779158,0.0021867028,0.0059443065,-0.0029895287,-0.0030972376,-0.004298489,0.0035556308,0.00065319124,0.0016265184,-0.001750087,0.0066261073,0.00017046851,0.0067022676,-0.0003920236,0.0061060786,-0.0074267345,0.0079366835,-0.004144406,0.0073092715,0.011752632,-0.004660983,-0.0020152573,-0.0035241789,-0.008027156,0.0016515105,-0.007281788,-0.006042687,0.008689585,-0.0067257797,0.0074260775,-0.007331856,0.005876402,0.007239074,-0.00090227945,0.0032653909,-0.0053931936,-0.002908702,0.0049918,0.0020387613,0.003893673,-0.0001850256,0.0056099645,-0.0054560103,0.0024337166,0.006187943,-0.0036948253,0.007609421,0.00048703412,0.0032558786,-0.011459376,-0.005947034,0.002227484,-0.0041780486,-0.00819752,-0.0022999544,-0.0018700423,-0.011633052,-0.002222774,-0.0031242664,0.006606365,-0.0068653384,0.0061602048,-0.0010401792,0.009106937,0.008990312,0.0078108613,-0.0005961545,0.00452673,0.004830028,-0.000829739,0.005802369,-0.0004846575,-0.0021299175,-0.0056948564,0.0005121228,-0.0046104062,0.0031901412,0.0007207446,-0.01015925,-0.0010392694,-0.0021423744,-0.010922409,-0.004196321,0.005045781,-0.008866607,-0.010654443,-0.006669364,-0.013429101,-0.0023711356,-0.01084901,-0.00129743,-0.0016700459,-0.0013859405,0.0042929114,-0.009103313,-0.010010489,0.0014245025,-0.0008911003,0.00024337182,-0.002123444,-0.0033315495,-0.0065511568,0.002216682,-0.0038688616,0.0049777883,0.0030896142,0.003313268,-0.011395,-0.0024694644,-0.0047447253,-0.0060533276,-0.0005054238,-0.005194139,-0.00034920248,-0.009193753,0.003285583,0.006610861,-0.0010518637,-0.002928546,0.004316387,-0.0019122832,0.010203031,0.0072124214,-0.00024136897,0.0024693203,-0.0034152584,0.0053900066,0.008987626,0.0053143883,0.0005669405,0.0036173526,0.0057933414,0.0025838783,0.010593154,-0.0009773434,0.007235957,0.011061457,0.009270445,0.0077381753,-0.0031382812,-0.0036864732,-0.00487636,0.0037932259,0.0038358348,-0.000755871,0.009083392,0.008233869,0.0014417042,-0.0036353874,0.009026595,-0.007539602,0.0054732775,-0.0033783575,0.0072919037,-0.0017742906,0.010676384,0.0038041882,0.005796762,0.0035548052,-0.0040837377,-0.0015960167,0.00053502055,0.0008833528,-0.0004608943,0.0002949494,0.007313865,0.010223616,0.0013430895,0.0046603857,0.0019923216,0.010304302,0.00023519354,0.014540573,0.0141704185,-0.002129342,0.012039251,0.009833026,0.008859493,-0.0029931278,0.0014646974,0.0039153136,0.005459953,0.004995148,0.0005257595,0.009069006,0.0011909145,0.009087693,0.0026353302,-0.0056193317,0.010712466,0.0035157418,0.004077249,-0.0015580062,0.010445163,0.007557938,-0.0069021424,0.006703264,-0.0033403886,-0.00043123795,-0.00049966696,-0.0003964672,-0.0025403134,-0.001049476,-0.0076852595,0.0021770678,0.009231226,0.012288826,-0.0033718704,0.0011299048,0.0017403751,0.008951293,0.006124324,0.011739996,0.0026260698,0.0050088083,0.0072766296,-0.0024046008,0.007964294,-0.009205272,0.0032801905,-0.00070100056,-0.0047545503,-0.008991273,-0.0023058418,0.0076954435,-0.002976638,-0.00047566276,-0.0007126683,0.0017219663,0.0004800333,-0.00401952,-0.0062751407,-0.0052815177,-0.004321013,-0.00010053504,-0.009425995,-0.008237543,0.0015323522,0.0032183542,-0.009603971,-0.0021189246,-0.010133052,-0.01118276,-0.006947468,-0.0009768866,-0.0080875205,0.0031407953,0.0045674243,-0.0028090351,-0.00884781,-0.0061671394,-0.0030687917,0.00035993612,-0.006155865,0.000130202,-0.00819616,0.010229559,0.004571872,-0.005472825,0.011702421,0.0040916577,-0.0077852877,0.0076016663,0.0064820894,0.0042081783,0.008214059,-0.0058756815,0.0030701847,0.0059894887,-0.009706768,-0.012636944,-0.010150577,-0.010971828,-0.0068311607,0.0058539887,-0.0024799055,-0.009698473,0.0043521025,-0.008603658,-0.011111414,-0.005651031,-0.0014847366,0.00008472912,-0.0041335393,-0.01134829,-0.0035606741,-0.0017704489,0.006922073,-0.0072387317,0.0074747982,0.00073242106,-0.0053928075,0.0075009386,0.003090846,-0.006432942,-0.0059625753,0.0025491165,-0.00508957,-0.009180415,-0.0020176654,0.0013523035,-0.0013476831,0.001911337,-0.001815683,0.00260543,0.0006865307,0.00800332,0.0008048964,-0.004079364,0.009280839,-0.0024869565,0.00073476025,0.012776783,0.0017350438,0.0005902311,0.01208656,0.0093357405,0.008707104,0.008509397,0.0004289971,0.005602562,0.007863342,-0.0049611027,-0.0024885633,0.0005938215,0.0036546597,-0.000789503,-0.0051166774,0.0057132593,-0.006207209,0.0050923303,0.0101266485,-0.0015065334,0.007999776,-0.004869365,0.0070438376,-0.0005605462,-0.006379457,-0.007799247,-0.0056237243,0.007761024,0.0020771362,-0.0002199058,0.000007081114,-0.0037437123,0.00044488956,-0.003978581,0.007377896,0.007898046,-0.0032853107,-0.0035318017,-0.005486866,0.008192752,-0.0023718714,-0.005816216,-0.00048789143,0.00883787,-0.00015086684,-0.0023494419,-0.0010912593,0.0063910964,-0.0022099016,0.0021021885,0.011508391,0.009898248,-0.0025206406,0.012102357,0.00498953,0.004582318,0.006449629,0.010637572,0.00936864,-0.0057346867,-0.00021374255,0.0013258907,0.012080113,0.010449774,0.0066698,-0.00051227014,0.0031947703,0.0037637632,0.0027099731,0.008180068,-0.00013480215,-0.0050940537,0.0034590743,0.001539574,0.0035051587,0.0035667997,-0.008470482,-0.00007137747,-0.0006785013,0.0055025,-0.0071981023,0.0070942733,-0.0003048438,0.000018701598,0.0041186274,0.0073750545,0.004766051,-0.000016353173,-0.0014542605,0.0033992154,0.009829114,0.0072998097,0.008495506,0.0040068147,0.010799685,-0.0020562424,0.006152855,0.008662032,-0.007856958,-0.0063022682,-0.009868735,0.007474014,0.0005953672,-0.002634181,-0.0057683224,-0.0077978205,-0.0067506353,0.0049802847,0.005484949,-0.00749595,0.004080247,-0.009396344,0.0063793925,-0.005344349,0.0018607022,0.0045978464,-0.0033254947,-0.00367266,-0.004765466,0.0059427177,0.00045165885,-0.008083567,-0.0015502361,0.0052892137,-0.0032966596,-0.0104063535,-0.0065024327,0.0052165245,-0.0036353467,-0.003886051,-0.0075730914,0.006471611,-0.009180828,0.007999796,0.0057297247,-0.0008929797,-0.005220112,0.002884874,-0.0048622144,0.009673472,-0.0057366337,-0.00019912804,0.0046133595,0.0028411504,0.004427059,-0.0068296865,0.00054207386,-0.0046550287,0.0022562472,-0.011276589,0.0016846438,-0.005391801,-0.009482344,-0.0047390084,-0.0037218253,-0.0021006851,0.003319518,-0.006731082,-0.003946161,0.0012994137,0.0015967295,-0.009035032,0.0043048393,-0.012490685,0.004192795,-0.011863218,-0.009233171,-0.0010586105,-0.007347877,0.00016153793,-0.0015526599,-0.0077951485,0.0040300507,0.00632694,-0.0031213707,0.005383344,0.0029344186,-0.0021674037,-0.0061162873,-0.0030010617,-0.008945261,0.002163879,0.004417666,0.007800638,0.004187485,-0.005467032,0.009661055,0.0029437814,0.0037075882,-0.0012453157,-0.0023117545,0.0053584916,-0.00013456009,0.0013664055,0.003382435,0.00045918394,0.0062003434,0.0023405773,-0.00119389,-0.00617032,-0.006398755,-0.0019095542,-0.0034684571,-0.0014369618,-0.001251967,0.0051466343,-0.00039871942,0.003960908,-0.0041178535,-0.00255367,0.0070338454,0.0024422845,-0.0063685356,-0.007112297,0.0024654402,-0.006253582,-0.005754055,-0.008581578,-0.0012332,0.009434966,0.008581799,-0.004429208,-0.0022743286,0.0020883232,0.0059523396,0.0043812715,0.0073862053,0.009030633,-0.0066689453,0.0011966208,0.010668846,0.002558411,-0.00044761645,-0.0059325756,0.0059465533,0.009777521,0.006306085,0.0057772463,0.010378574,0.0028465653,-0.0013841039,0.010480323,-0.00058594916,-0.001317866,0.011423778,0.00007335304,0.011721784,-0.0019338353,-0.0027485292,0.012324057,0.010906272,0.001942504,0.009202015,0.0075195553,-0.005101246,0.009358837,0.006554822,0.005030135,0.0045171143,0.005717538,-0.0032307352,-0.0048129912,-0.008584311,-0.008807291,0.002350015,-0.0019033621,0.0021477821,-0.0059148064,0.007751071,-0.0073195323,-0.001620543,0.00718755,-0.0028498594,-0.0024803646,-0.0055156266,0.0027507748,0.010396694,0.011038418,0.009829797,0.0072473707,-0.005107509,-0.0056621204,0.00783108,0.008919703,0.0074500637,-0.0046700398,-0.0027295128,-0.0030957477,0.010793616,-0.0010034561,-0.0069212643,0.00013158718,0.0020355626,0.006512861,-0.007442971,-0.0052632843,0.0011832216,0.006024147,0.0064902785,-0.0003790468,-0.00035397735,0.0014352269,0.006020452,-0.0062504187,0.0023648466,-0.008964694,-0.0035322069,-0.008836954,-0.009750943,0.0053061363,0.0040948936,-0.0068444004,0.004323943,0.007363334,-0.0047386005,-0.009805306,0.002082534,-0.014294523,-0.01098824,-0.008935874,-0.0025777228,-0.002731594,0.0023619581,-0.0029906107,0.007081317,0.0034997347,-0.0045985044,0.003487279,0.0087593,-0.0007394839,0.0029032337,0.002283703,-0.005078884,0.0035071268,0.002497789,0.00023249947,0.008039185,-0.008082393,0.0064961268,0.0052189236,0.0031784128,0.00433767,0.0070193564,0.0010138107,-0.011655082,0.003483429,0.005452449,-0.0032367655,0.002765665,-0.0051850723,-0.005600639,-0.0077550695,-0.0068137757,-0.0049329046,0.0056048613,-0.007420967,-0.013398348,-0.0073287124,0.0021375623,-0.00871347,-0.0118843,0.005126412,-0.0034373037,0.0024829614,0.002975364,-0.0005337461,-0.008053352,-0.0025485908,0.001367216,0.008455338,0.0066240476,-0.0053303004,-0.008928743,0.009507965,-0.004125227,-0.0019832463,0.0012331465,0.011811951,-0.00037308462,0.007723276,-0.00066511414,0.004990675,0.011156319,0.009594373,-0.0038303612,0.0016422472,0.0103875445,0.0051127975,-0.0056977393,-0.0029477368,-0.0024671967,-0.007295008,0.0050892886,-0.0038739156,-0.0063364473,0.000025001013,0.0024619033,0.0065226746,-0.0037695323,0.003078006,0.0065451264,-0.008275977,-0.0064764,0.00593358,-0.006400718,-0.0020647834,-0.007502406,-0.006186087,0.008526166,0.008588131,0.0043783286,-0.00012657668,0.002463229,-0.007049168,-0.002669723,0.006939977,-0.0059757633,-0.004316784,-0.0064710598,0.0011094777,0.0024756433,-0.0014546802,0.009918153,0.0073882467,-0.0027202722,0.008259734,0.00220139,-0.0012319857,0.008614326,0.011181945,0.0077162995,0.012178237,-0.0008541367,0.01434586,0.011993544,0.004946042,-0.00035063882,-0.0013485987,0.004082531,-0.0059433714,0.00059241976,0.0039485903,0.008990139,0.003958126,0.0035514375,0.010034784,0.001623597,-0.00398686,0.0091976235,-0.0039681713,-0.0012384799,0.00047331062,0.001747589,0.008536955,0.0035681734,-0.006856416,0.00070227735,0.0032887608,-0.006363379,-0.0016796096,0.007959234,-0.007519403,0.0056041814,0.009982872,0.0034393936,0.0049973857,0.004756969,-0.002298111,-0.002101469,0.004527331,0.004730419,-0.0008904609,0.008668643,0.0019888629,0.010526701,0.0048641283,-0.004356309,-0.004267979,0.006286929,0.00360264,0.0088226525,-0.00039072358,-0.005342215,-0.007392145,0.005837226,-0.009506205,-0.008804749,0.0067883492,-0.0012683155,0.007485062,0.0007681174,0.008269396,0.0046581523,0.00810354,-0.003784242,-0.0016973381,-0.00019479981,-0.0055799377,0.007438614,-0.0031571633,-0.0055195265,0.00039364502,0.007930643,-0.010337313,-0.0071148337,0.002801376,-0.0090586925,0.00015166849,-0.0060857134,-0.0031170882,0.0040412825,-0.0077599236,0.000029740384,-0.0037310144,0.0041123545,-0.00054469716,-0.0010299876,-0.0076983655,-0.008275624,0.009294599,0.0020222086,-0.008229105,0.0073669776,-0.008892169,-0.0033628833,0.0027856387,-0.002695941,0.004478869,-0.0034683738,-0.003646717,-0.007985939,0.0025823726,-0.008087557,-0.004033281,0.008863581,-0.0019021054,0.0012168258,0.004313966,-0.0109528005,-0.007475327,0.000684932,0.0034953654,0.001957077,0.0014831501,0.0038623654,-0.0027119592,0.0043146648,-0.0038049782,-0.008106478,-0.003544127,-0.003266846,-0.00600433,-0.00965376,0.00753935,0.0050424975,0.007123816,-0.006967786,-0.0014524572,-0.001295136,-0.0049240775,0.00850871,-0.0040013194,0.0036300744,0.0029920433,-0.006133795,0.009165105,0.006755454,0.010243977,-0.00006477467,-0.0049153655,0.0020412253,0.0009908179,0.0013514058,0.012551722,0.008367258,0.00057003694,0.010974678,0.006360495,0.00206869,0.0060904115,-0.00671441,-0.00010024266,0.0076519013,0.002643796,-0.0078853825,-0.0014549001,0.00037764758,-0.0028280246,-0.0056689405,0.008233359,0.008825871,-0.0066659325,-0.003986992,-0.0050495495,0.001977414,-0.0020861134,0.001108836,-0.008174051,-0.008399975,-0.005501845,0.0027665782,-0.0017963405,-0.0033873213,0.008881747,0.0034860896,-0.0011947231,0.0062503642,-0.006246508,0.0032497144,0.00072354573,-0.0032503991,0.00070624007,-0.001951643,0.010651543,0.012652225,0.00862795,-0.0017330634,0.00091812783,-0.0022247182,-0.00014561326,-0.002645603,0.002815154,0.014405594,0.005855927,0.0082334755,0.013370653,0.0014132765,0.0033349798,0.0022768734,0.0065703806,-0.003960707,-0.0057498394,-0.003029886,-0.0050677857,0.0062401,0.0006423657,0.0026301292,-0.002013463,0.002385305,-0.0014824102,0.0031902716,0.0045517157,-0.0017163049,0.0036427283,0.003273874,0.011997324,0.0043505984,-0.0006441036,0.007908781,-0.0031882052,-0.00950578,0.007990268,0.007086411,-0.0056389254,0.0053637135,0.010710728,0.0024052514,-0.00039868278,0.00017991998,-0.0024971976,0.004921394,0.00044026197,0.00845613,-0.003364263,0.0013374457,-0.0018719198,0.0051682917,0.010306527,0.0029207817,-0.00081585685,-0.0061002276,0.00094996206,-0.008247423,-0.0033438068,0.008332684,-0.00075135275,-0.004406268,-0.003471685,-0.0050310143,-0.0016873333,-0.008880615,0.00038694587,0.0017854479,-0.0013948879,-0.00003136329,0.00006990072,-0.004217222,0.0041207406,-0.007497617,0.0050424607,-0.0031357675,-0.0020574857,0.0019482784,-0.0065339347,-0.004276037,-0.00364185,-0.0049680276,0.00693466,0.00030419297,0.008257542,0.005056962,-0.008388585,-0.005665761,0.0061894325,0.006112517,-0.009285722,-0.008792986,-0.0021933357,-0.006608031,0.004597212,0.002597341,0.0059484215,-0.007278853,-0.009857572,-0.0010447844,0.0013614412,0.004517232,-0.0051044193,-0.0011869114,-0.007544986,0.00875631,-0.004638625,-0.0063088243,-0.0036374885,-0.007399908,-0.009606141,-0.0077184997,-0.008086903,0.0015068077,0.0041697216,-0.00061871693,0.00016937776,-0.0066975006,-0.01060591,0.0029183994,0.0061952486,-0.0050271736,-0.0058674836,-0.00968493,-0.008423242,0.0030717016,0.004110409,0.0040410855,-0.0017383143,-0.0006562643,0.0054685357,0.008249512,-0.0000998561,-0.007228137,0.0076304986,-0.0014485836,0.001360723,-0.006799581,-0.0017347146,0.0034528568,0.0032335632,0.0015742199,0.0065186275,-0.0050516143,-0.004666859,0.008467506,0.009530876,0.005317539,0.005286937,-0.0025309126,0.01079805,0.00008919006,0.0017107825,0.0040945746,-0.0035264248,-0.0073585375,0.01039575,0.0076008667,0.0057021976,0.005586657,0.002989034,-0.005758305,0.007272551,0.007668425,-0.0031716833,0.009451644,-0.004675223,0.0028298253,0.0026456816,-0.0013520212,0.008543978,-0.0011380435,0.00085616583,0.0071386755,-0.0048803394,-0.002860026,-0.0042041186,0.008519097,-0.003709114,0.005265096,-0.0011970546,0.0014275119,0.008137831,0.0030298766,0.0027847278,0.0077707227,0.012595339,0.0026757647,-0.0023491331,0.011069398,-0.0040793233,0.00003794135,0.005461281,0.009975592,0.009983463,-0.0039366726,0.009959339,0.011408384,0.013073151,0.012964853,-0.0040396466,0.0056190114,0.010129963,0.006148389,0.010965119,0.009336766,-0.004329934,0.007107567,-0.0055137714,-0.0032899608,0.010089415,-0.0010823214,0.0082880035,-0.0018242702,0.009748996,0.0019023875,0.0012321327,0.012259744,-0.0039920923,-0.003311842,-0.00005048031,0.010198925,0.01233866,-0.0055589313,0.0008188464,-0.003750711,0.0052595455,0.0011765454,-0.0021268695,0.0080709765,-0.0020307114,0.0008226737,-0.00051842205,0.0040836856,0.0084844995,-0.0072857556,0.0055425065,0.0012813833,0.005016595,0.0011627292,0.00047702447,0.00015584864,0.00087651744,0.006185363,0.0019776407,-0.002679394,-0.00095177704,0.009513191,0.0021098913,0.006841418,0.0064682225,0.0051883473,-0.0016187739,0.0036707057,0.0042121224,-0.0058775726,-0.003712481,0.0069538,-0.0033158022,-0.0034394683,-0.0037783126,-0.0013458971,0.002310062,-0.00712887,0.0013364274,-0.0025387718,-0.0011717961,-0.0016850105,-0.0033143081,-0.006372329,0.0022732837,0.0022782267,0.008490903,0.005332585,-0.0032708338,-0.0051101046,0.0068727764,0.003525138,0.007821296,0.0028169474,0.0072240727,-0.0034042518,-0.0022498497,0.004904549,-0.009641772,0.0013285623,0.0020217937,0.00056338817,0.009213652,0.0071387338,0.007454003,0.007640668,0.0019485838,0.003756921,0.0054237535,-0.00009865289,-0.0050090547,-0.0027902862,0.0009899915,0.005787148,-0.0061194114,-0.010164855,-0.0065253386,-0.00067194505,-0.008405641,0.000805457,0.011565027,-0.0010105215,-0.00868089,-0.0059982855,0.0015800003,0.003076609,0.0049473313,-0.006895891,0.00076275715,0.006249587,-0.005365699,-0.002934767,-0.003393144,-0.005959912,0.004928803,-0.0055724606,-0.006851205,-0.0066124834,-0.004903307,-0.009930426,0.006609619,-0.0007093754,-0.00024462552,0.005944798,0.0012358745,-0.0064324425,0.008039808,0.0044702166,0.007533744,-0.0024279314,0.006197587,-0.010337135,0.0022411428,-0.0033795056,0.000056382254,0.008465477,0.001673825,-0.00067271286,0.008872402,0.003055653,-0.00061437464,0.0072691115,-0.0051819123,-0.003476825,-0.0009647588,-0.0025896144,-0.0035462033,0.00017418168,-0.0038481904,0.0055372403,-0.0019315372,0.008253171,-0.003629698,-0.007414294,-0.006140958,-0.00052766345,0.0053264145,-0.0051409183,0.0077705155,0.007153521,0.0010343889,-0.0023530829,0.000394196,0.0053531458,-0.005133513,0.0035129834,0.003606167,-0.002122256,0.00020649505,-0.007168094,-0.007680108,0.0015731798,-0.004635643,-0.0023634546,0.003060563,0.0067067384,0.011534288,0.0059910202,0.0066593164,0.00698646,0.009527333,0.01130661,-0.0019874768,-0.0070596687,0.01222555,0.003215823,-0.005894038,0.006315745,0.009598543,-0.00012884253,0.0069793714,0.0005968651,0.0032768894,0.009670487,-0.0031880608,0.00019035967,0.009877194,0.0052777263,-0.0023512302,-0.002328816,-0.0029140322,-0.0052412017,-0.0038793797,0.0072160535,0.0044360976,-0.0005224634,0.0002899981,0.009715577,0.008269461,-0.0069356556,-0.0045307963,-0.008072941,0.006602763,0.0037841036,-0.003700332,-0.005706496,0.0028086794,0.008102004,0.0027832082,-0.0047737146,0.008301725,-0.0057790675,0.008045936,0.0132798115,-0.00056981604,-0.0054247263,0.0110583315,0.009362592,0.0011664344,0.007633194,0.0025639634,-0.005553338,0.0014266882,0.0052421037,0.000007114554,-0.0018305934,0.0055792765,-0.006229448,0.006661527,-0.0028469972,0.012318424,0.002378642,0.012121013,-0.0041732704,0.007500144,0.0032947927,-0.0020278739,-0.00093969126,-0.0018750544,-0.0070693945,-0.002285243,-0.0010295846,0.0016825469,-0.008401244,-0.002353297,-0.008374476,0.006661023,0.001729302,0.0005962824,-0.006396259,-0.008110389,0.000104303086,0.002172452,0.0076011163,-0.0022032012,-0.007376152,0.0020429923,-0.0018646471,-0.0049076094,0.0036730736,-0.0023399473,0.0068078605,0.006181663,-0.008202433,-0.006920993,0.002431716,0.0056673614,-0.002092521,0.005089288,0.0046705985,0.009554661,-0.010933174,0.0013232192,-0.0076696747,-0.0007939095,0.00056575844,-0.007663407,-0.0064100195,0.0050920337,0.0030790314,0.005857857,-0.0019651076,0.009388614,-0.007078481,-0.007238401,0.010807296,-0.010266664,-0.009148239,0.0072646113,-0.00048179086,0.00051946886,0.0011563926,0.0009733112,-0.009544722,-0.010851425,-0.0046184105,0.0036862227,-0.009149077,-0.0073798858,-0.006038465,0.0061389506,0.0022443414,-0.006465922,-0.008953121,-0.0057016294,-0.0012526072,-0.0075820773,-0.0022231126,0.006056526,-0.008440235,0.005950122,0.0012166842,0.0035303957,-0.008925502,-0.008112978,0.00076737173,0.004219256,-0.006259858,0.003298538,0.0021182606,0.0035918036,-0.0067375023,-0.0076219505,0.00096563605,0.007201581,0.00766736,-0.008192719,0.0069067036,0.0062399753,-0.0020771988,-0.0051112026,-0.0037000806,-0.0019381115,0.0006699363,-0.0066092415,0.0038836487,-0.0074411775,0.0007546633,-0.0063623395,0.005418524,-0.0031754505,0.0049694576,-0.006385012,0.0007377839,0.0026966832,-0.0010372247,0.009841582,0.0011407377,0.0011046331,0.002950873,-0.0040443153,0.009275341,0.008871668,0.0036497319,0.00090290647,0.0050961655,-0.0023981114,0.012792253,0.0062164995,0.002565831,-0.0009298465,0.0067954836,0.0070474637,0.0035827635,-0.0061833225,0.005347002,0.0024920336,0.0012693708,0.0056298543,0.008661066,0.0045184838,0.011103757,0.0024393809,0.001415031,-0.0014391476,0.0035484494,-0.00021386716,-0.0020866098,0.008158243,0.010175862,-0.003863358,0.0024691755,0.00658489,0.0013395523,0.0055891047,0.005381706,-0.0011766064,0.0066978596,0.008402383,0.009010949,-0.0019571774,0.005485627,-0.00398423,-0.0032131153,0.006872198,0.0086464435,0.003986429,-0.009042649,-0.004686465,-0.006062692,0.0053581754,0.008940867,0.0048104743,0.006165565,0.009319006,-0.004357791,0.011848634,-0.004962506,0.00895889,0.0041742716,0.0014823584,0.00915827,-0.0028501735,-0.006670606,-0.0020453343,0.011742938,-0.0023801543,-0.006347601,0.010158125,0.0074393204,-0.0033370247,0.006011677,-0.001188948,-0.003925995,-0.000055742352,-0.00045064933,0.0044334484,0.010275123,-0.006026377,0.005221084,0.0071475697,0.006634506,0.008259793,-0.0052679707,0.0073510567,-0.0014454605,-0.008552246,0.0018234346,-0.00909997,-0.003086364,0.0025423665,0.0026188302,0.007134017,-0.007817071,-0.001539964,0.0044657355,-0.009062305,-0.0043013208,0.0057663075,0.0011019835,-0.0056409286,-0.00064068264,-0.003476892,-0.006289862,0.0034187313,-0.008550925,-0.0015059357,-0.009063522,-0.0023565385,-0.0072857807,-0.0060990728,0.010030181,0.005851493,0.0076792864,-0.0051094964,0.007475022,0.00402472,-0.009835362,0.0031878115,-0.006257308,0.0070188977,0.008134112,-0.012552636,-0.0073370854,-0.005727954,-0.009492542,-0.0035086102,0.0014472808,-0.0063414034,0.000022829914,-0.005166708,-0.0037197168,-0.013517012,-0.007137814,0.00006836275,0.004263555,-0.0068693087,-0.0046377443,-0.0028397536,0.0023826796,-0.008270757,0.005415065,-0.005102235,-0.0072524054,0.0005467161,0.0011580616,0.004366325,-0.008176779,-0.009679631,0.00018462817,-0.0059420154,-0.0051782886,-0.008204575,0.0026699102,-0.006075312,0.004188949,-0.00010958757,-0.0035579973,-0.008545347,-0.008601088,-0.0083616525,-0.001958619,-0.0010949437,-0.007171776,0.004939872,-0.0007157672,0.001094597,0.0048045516,-0.004394838,0.0077631506,-0.010549864,0.0035725604,-0.0050877673,-0.001383355,0.0019739603,0.0032963264,-0.0008156784,0.0062421192,-0.00027515326,-0.0062139886,-0.0065582898,0.008433877,0.00011442548,-0.007389597,0.000004986193,-0.002097231,-0.005277328,-0.0050651263,-0.004039555,0.0036307,0.008120829,-0.008447856,0.0025142974,0.0041070925,-0.0037977467,-0.007020181,0.009080406,0.0018184981,0.00041294965,0.0032587661,0.008164569,-0.004203396,0.009692793,-0.0031481823,0.003577385,0.00097620115,-0.0011577533,0.0043501034,-0.0025691327,-0.002766871,0.0043707574,-0.0007334469,-0.0051831896,0.009754466,0.008165538,-0.0037051975,-0.00247442,-0.0018286161,0.0077388226,0.0028332858,-0.0006758134,-0.0014607321,-0.0029107174,0.0053248424,0.0031473062,-0.0011164398,0.0077321613,-0.0029976552,0.0072124205,-0.0013332154,-0.0038393445,0.0069642593,-0.0040775295,-0.0049334615,0.007026747,-0.00086163555,0.0051511945,-0.001020458,0.0059145717,0.00934436,0.0024949086,-0.0016333779,-0.0021705437,0.0027872962,-0.002168141,-0.000052194137,-0.004387942,0.0008815721,0.010799034,0.00035756614,0.00072935567,0.000059360384,-0.0046757776,0.008697244,0.009608147,-0.0063073495,-0.006414771,-0.0024336989,-0.006215737,0.0017632837,-0.0034091007,0.010544271,-0.0006372662,0.010663993,-0.0025156622,0.012724555,-0.0013807676,-0.0036266942,0.013111945,0.006619971,0.0052039525,-0.0036920647,0.0017839688,0.0043945,0.0051535657,0.0019987985,-0.0043560322,0.0034292901,0.0025761237,0.0010528985,-0.004614378,0.008570033,0.005489178,-0.002927528,-0.00026737346,0.0017273717,-0.0065336926,0.0069731697,-0.0012592813,0.0072614355,0.0061515532,0.006235489,0.0013783132,-0.00038268385,0.0025943266,0.0020134572,0.004928805,0.002159896,-0.0062494404,0.0001410634,0.0047468534,-0.007661572,-0.004840792,0.0053484878,-0.0010545417,-0.0038534084,-0.004340914,0.0011806348,0.005178426,0.003850502,0.0043226588,-0.0034627707,0.0046787267,0.0010526193,0.0036865263,0.005932549,0.0060031875,0.002604809,-0.009771691,0.0007437227,-0.007098608,-0.012742615,-0.011560124,-0.011288163,-0.0144430855,-0.011309491,-0.0054901885,0.001308448,-0.00022047112,-0.0015194787,-0.0009072085,-0.0048692906,-0.0016414042,-0.0024310334,0.0014959215,-0.0055415537,-0.010104084,-0.0030668632,-0.010084169,-0.0003252174,-0.0055403123,0.0072267926,0.0068231607,0.0025862185,-0.007971022,0.0018759524,-0.004139951,-0.0032890353,-0.0055729537,-0.00033562732,0.0053087333,-0.010201467,0.0045771343,-0.005275075,-0.001624845,-0.00968667,-0.0035149327,0.0009842019,-0.004103987,0.005345051,-0.00847581,-0.010183251,0.0053696027,-0.0040186914,-0.009032341,-0.01111285,0.0010520674,-0.0007488495,-0.01154625,-0.011506471,-0.0074929823,0.00352765,-0.010731608,-0.009387688,-0.009151401,0.00504244,-0.007976854,0.007871576,0.003996327,-0.0016455884,-0.0045966213,0.0070733763,-0.0057790047,-0.0050345687,0.007931195,-0.0066064913,0.0063582887,0.0023639142,-0.0019303043,-0.0053408663,0.008437844,0.0070408615,-0.0034342334,0.0049622105,0.0020995638,-0.0053562275,-0.0030323903,-0.00440039,0.0021233268,-0.008858875,0.0040134406,-0.0051344987,-0.0047711805,0.0037252922,-0.001965916,0.009317093,-0.007990284,-0.006326269,0.0016051222,0.007879351,-0.0057203528,0.00041955593,0.0014843416,0.0016709113,0.0010380442,-0.0045985905,-0.0051854085,0.0082483385,0.0012677273,-0.0026389065,0.0038075987,0.00016168688,0.0014541254,0.008237714,0.011983284,0.0000029343355,0.005935308,0.010508596,0.00030935317,-0.003472707,-0.0064132437,0.0050942977,-0.0037535073,0.001140475,-0.0009601206,0.011313186,0.0017697526,0.006066526,-0.0045145405,-0.0017903829,0.010892986,0.0059273797,-0.00307315,0.002482522,0.013076794,0.0114737265,0.0043987785,-0.003935248,0.0052762167,0.00085414207,0.009749624,0.0028826254,-0.0029723737,0.0047213887,-0.0028405008,0.008824472,0.0027138786,0.008291177,0.008009123,-0.0027920622,0.010785098,0.0049847467,-0.00083980616,0.0062243775,0.0027242955,0.0015423121,-0.002123312,-0.002577863,0.0057340167,-0.00542785,0.0065068123,-0.0052510933,-0.005770156,-0.0013965463,0.006029211,0.004202916,-0.008366718,0.007923405,0.0118618375,0.0052588442,0.0058794585,-0.0009782069,0.008101556,0.0072128493,0.011126123,-0.0057837744,-0.00089219364,0.01065092,0.004574141,0.0060357135,-0.00065988116,0.008988856,0.009017795,-0.0041371593,0.00036278475,0.012783279,-0.0034010108,0.00037076976,-0.001112105,0.011113511,-0.0064677647,0.005072018,0.0045631025,-0.0017869368,-0.0065237745,0.0052774595,0.0036543307,0.0059681684,0.009361523,0.0032428831,-0.005135072,-0.00920692,-0.011052178,-0.0022874312,-0.009656041,-0.005855616,-0.009827948,-0.0013310763,-0.006190717,-0.0072514885,0.0037396336,